svm_type c_svc
kernel_type rbf
gamma 4.20045e-05
nr_class 5
total_sv 2386
rho -0.022175 0.0161896 -0.0398852 0.0933522 0.0393542 -0.0171773 0.12274 -0.0333255 0.0822152 0.136859
label 2 4 5 3 1
nr_sv 485 429 513 481 478
SV
0.1256408704690965 0.04026299714499184 0.1318891768115409 0.03158100146462568 0:28 2:28 10:28 15:14 28:28 29:14 30:14 31:14 33:14 34:28 36:14 37:14 39:14 40:43 41:14 45:14 48:14 49:28 50:28 52:14 53:14 54:14 57:14 58:14 60:14 62:14 63:14 64:14 65:14 66:43 67:14 69:14 70:14 74:28 79:14 80:14 81:14 82:14 83:14 84:14 85:14 86:14 88:14 89:14 90:28 91:14 92:14 94:14 95:14 96:28 98:14 99:14 100:14 102:14 103:14 
0.6147202397568273 0.06261826717741993 0.05778756223711132 0 0:96 2:64 13:64 111:32 128:32 247:64 248:32 260:32 313:64 382:64 383:64 384:32 385:32 386:32 387:32 388:32 389:32 390:32 391:32 392:32 393:32 394:32 395:32 
0 0 0.01395212288912034 0.0899684549197714 0:71 2:47 5:71 11:23 13:23 14:23 15:71 16:23 17:47 95:47 103:23 151:23 211:23 249:23 269:23 281:23 282:23 349:47 403:23 405:23 411:23 412:23 418:23 421:71 423:23 425:23 426:23 427:23 428:23 429:23 
1 1 0.841592759811732 0.9105196923512229 2:13 12:6 14:13 31:13 34:6 40:13 63:13 69:13 91:6 105:6 107:13 108:6 110:6 111:6 113:6 117:6 122:27 145:6 178:6 182:6 200:13 211:6 225:6 245:13 252:6 260:34 266:6 278:6 285:6 337:6 349:6 385:6 395:6 401:13 402:6 423:6 425:6 431:34 432:20 433:13 434:20 435:6 436:13 437:6 438:13 439:13 440:6 441:6 442:6 443:6 444:6 445:6 446:6 447:6 448:13 449:13 450:13 451:13 452:6 453:6 454:6 455:6 456:6 457:6 458:6 459:6 460:6 461:6 462:6 463:13 464:13 465:6 466:6 467:6 468:6 469:6 470:6 471:6 472:6 473:6 474:6 475:6 476:6 477:6 478:6 479:6 480:6 481:13 482:6 483:6 484:6 485:6 486:6 487:6 488:6 489:6 490:6 491:6 492:6 493:6 494:6 495:6 496:6 497:6 498:6 499:6 500:6 
0.8336879361965538 0.8591381917144764 0.8352156731847409 0.9438493783762129 2:133 67:66 104:133 204:66 245:133 266:133 329:66 446:66 501:66 502:66 503:66 
0.9645600793818954 1 0.9468354360280032 1 0:250 143:250 285:83 429:250 500:83 504:83 
0.1785444667764816 0.3558717053960028 0.1940065433205602 0.2446483462177917 0:27 2:27 10:27 11:13 12:13 14:13 16:13 54:55 85:13 89:13 90:13 95:13 103:13 145:27 177:13 183:27 204:13 209:13 213:13 243:13 269:41 282:69 298:13 310:13 335:13 405:13 411:13 429:41 541:13 545:13 546:13 549:97 550:41 552:13 555:13 557:13 558:13 560:13 561:13 563:13 564:13 565:13 566:13 567:41 568:13 569:13 
0.3976017549399438 0.3073042672748685 0.9635908717807954 0.4371685271322607 0:20 6:10 7:5 14:5 15:5 18:10 20:10 24:15 27:10 34:5 48:15 79:5 86:10 90:5 91:5 105:10 108:5 112:5 118:5 120:5 137:5 141:5 143:25 145:5 161:5 182:5 183:5 184:25 185:5 186:5 187:15 189:5 191:5 194:10 204:5 209:10 211:25 213:5 215:5 221:10 222:20 225:5 227:5 229:5 232:5 237:5 243:10 253:10 256:5 282:5 285:10 292:5 293:10 306:10 317:5 318:10 322:5 323:5 324:5 326:5 330:15 332:5 334:5 339:5 343:15 344:5 345:5 350:5 351:5 352:5 353:5 354:5 355:5 356:5 359:5 360:5 361:15 363:10 364:5 367:5 368:5 369:5 370:5 393:5 400:15 407:5 417:5 428:5 432:10 455:5 474:5 475:5 506:5 516:5 570:5 571:5 572:5 573:5 574:5 575:5 576:10 577:5 578:5 579:5 580:5 581:5 582:5 583:5 584:5 585:5 586:5 587:5 588:5 589:5 590:5 591:5 592:5 593:5 594:5 595:5 596:5 597:5 598:5 599:5 600:5 601:5 602:10 603:5 604:5 605:5 606:5 607:5 608:5 609:5 611:5 612:5 614:5 615:5 616:5 617:5 618:5 619:5 
0.5130066742571653 0.542487367296258 0.4947723373768204 0.567837687761065 0:156 12:19 83:19 95:19 143:176 194:58 231:19 242:39 266:19 285:19 296:19 306:19 310:19 386:19 400:39 432:19 434:19 449:19 541:19 545:19 600:19 631:19 633:39 636:39 637:19 642:19 644:19 645:19 646:39 
0 0 0 0.10029123344449 0:28 1:43 2:14 26:7 31:7 40:7 48:14 66:21 104:28 105:7 107:28 108:21 112:7 115:7 121:7 127:14 128:14 136:7 138:7 171:7 188:7 251:7 266:14 272:14 285:28 298:7 306:7 313:7 336:14 349:7 361:7 370:7 383:14 391:7 402:21 410:7 448:14 451:7 471:7 474:14 496:14 528:7 572:7 596:7 600:43 655:7 667:57 668:7 669:7 670:7 672:7 673:14 674:7 675:14 676:7 678:7 679:7 680:7 681:7 682:7 683:7 684:7 685:7 686:7 687:21 688:7 689:14 690:7 691:14 692:7 693:7 694:7 695:7 696:7 699:14 700:7 701:7 702:7 703:7 704:7 705:7 706:7 707:7 708:14 709:7 
0.6478644553147596 0.6719928091797752 0.6504081394031539 0.7234200296305978 0:136 2:136 11:45 17:45 20:45 213:45 269:45 281:45 282:45 403:45 503:45 567:45 739:45 740:181 741:45 
0 0.2900055032127116 0 0 0:93 2:46 11:23 17:23 20:23 26:23 27:23 69:23 86:23 140:23 151:23 154:23 183:23 192:46 213:23 227:23 229:23 246:46 266:23 385:46 386:23 402:23 442:46 525:23 596:23 744:23 745:23 746:23 747:23 748:23 749:23 750:23 751:23 753:23 755:23 
0.8614858223441993 0.8972946848059357 0.8498420961708177 0.9679716600811428 0:200 11:133 120:66 143:133 285:66 339:66 402:66 721:66 795:133 796:66 
0.5434400888489105 0.4848254073669811 0.2653122701487654 0.4302536893209015 0:52 1:52 2:52 109:52 145:26 313:78 383:78 397:52 550:52 668:78 798:26 799:26 800:26 802:105 803:26 804:26 805:26 806:26 807:26 808:26 809:26 810:26 811:26 
0.8611460578068846 0.8958432470290013 0.848564439505442 0.9667060682616164 0:176 11:58 17:58 26:58 27:58 143:176 285:58 306:58 545:58 813:176 814:58 
0.6715424184971525 0.7002212642196303 0.6633321375609841 0.7672143463138723 0:105 2:105 109:52 110:52 111:52 138:52 263:52 493:52 499:52 729:52 860:157 861:105 862:52 863:52 
0.60838280931879 0.6258988975124312 0.5875923453619863 0.6825363798248624 0:115 2:76 34:76 110:38 111:38 188:38 253:76 265:115 285:38 429:115 496:38 498:38 862:76 867:38 868:38 869:38 
0.1697068589904059 0.1901249887331821 0.176856310752406 0.2369707605427518 0:54 11:18 80:18 90:18 91:36 95:18 127:18 143:54 155:18 159:18 161:36 194:18 211:18 221:18 266:18 293:18 298:18 306:18 318:18 319:18 323:18 332:18 343:18 346:18 348:18 354:18 355:18 507:18 558:18 582:18 669:18 770:18 792:18 879:36 898:54 899:18 900:18 901:18 902:18 904:18 905:18 906:18 907:18 908:18 910:18 911:18 
0 0 0 0.08844645230852347 0:28 6:11 10:5 18:5 24:5 48:5 64:5 79:5 90:5 91:5 95:5 105:11 108:5 115:5 141:11 143:11 155:5 161:5 164:11 181:5 182:5 184:34 185:5 186:5 187:17 189:5 191:11 196:5 202:5 204:5 209:22 211:11 213:5 221:5 222:5 227:5 229:5 231:5 233:5 237:11 252:11 253:11 282:5 285:28 292:5 293:11 306:45 316:5 318:5 322:5 326:5 330:11 332:5 339:5 343:17 345:5 353:5 354:5 355:5 356:5 359:5 360:5 364:5 365:11 366:11 402:5 405:5 443:5 446:5 449:5 491:5 506:5 573:5 594:5 595:5 596:5 598:11 599:5 600:11 601:5 602:11 605:11 606:5 609:5 612:11 616:5 617:5 618:5 619:5 628:5 644:5 769:5 810:5 896:5 905:11 932:22 933:22 934:5 935:5 936:5 937:5 938:5 939:11 941:5 942:5 943:11 944:5 945:5 947:5 948:5 949:5 951:5 952:11 953:5 954:5 955:5 957:5 958:5 
0.6975210801262992 0.7298871446166751 0.6622944253393571 0.7759720268083908 0:83 2:83 24:41 95:41 191:41 451:41 549:41 644:83 972:41 973:41 977:41 984:41 987:41 988:41 990:41 993:41 1000:166 1001:41 
0.3945635781717802 0.4110613670338385 0.4241352583856012 0.4603196941719799 0:125 2:125 16:62 17:62 20:62 86:62 188:62 278:62 329:62 386:62 498:62 566:62 816:62 1018:62 
0.6172240153568326 0.5416052171113358 0.4973347186092403 0.5870928978790437 0:80 1:120 2:120 108:40 111:80 192:40 247:40 313:40 383:40 432:120 507:120 655:40 1077:40 1078:40 1079:40 
0 0 0.04249396793437073 0.06608506168483538 0:142 1:95 2:95 10:47 11:47 14:47 17:47 53:47 95:47 145:47 213:47 269:47 282:47 405:47 541:47 550:47 1082:47 
0 0 0 0.01653034733542419 0:85 1:85 2:57 64:57 104:57 105:28 109:28 110:28 111:57 145:28 285:28 313:28 329:28 383:28 446:28 502:28 506:28 600:28 694:28 776:28 928:114 929:28 930:57 
0.9062283882300702 0.9461366691685306 0.89767464449706 1 0:86 149:43 272:173 501:43 558:43 767:43 852:43 913:86 1018:43 1086:173 1087:43 1088:43 1089:43 1090:43 1091:43 
0.4899529669083395 0.5282560230664683 0.5246114892133199 0.5810558914886366 0:117 2:117 5:58 95:117 145:58 211:58 329:58 423:58 440:58 525:58 669:58 780:58 821:58 1095:58 
0 0 0 0.1848947261183425 0:70 9:17 10:17 11:17 15:17 64:17 90:17 138:17 143:70 145:17 161:17 189:17 192:17 194:35 204:17 213:17 221:17 253:17 279:17 285:17 306:17 316:17 318:17 323:17 324:17 329:17 330:17 343:17 360:17 361:17 555:17 558:17 573:17 582:17 614:70 669:35 935:17 937:17 945:17 1064:17 1089:17 1103:17 1139:17 1140:17 1141:17 1142:17 
0.2310315356407857 0.1501943080008057 0.2672191598926764 0.4070891756573073 0:28 1:7 2:14 9:14 10:21 11:21 12:7 13:7 26:7 30:7 64:14 89:7 91:21 95:7 108:7 111:14 132:7 142:7 145:14 155:7 157:7 165:7 166:7 168:14 175:14 192:7 204:7 211:14 215:7 272:14 283:7 290:7 295:7 306:7 312:14 322:14 335:7 343:21 365:7 371:7 393:7 399:21 416:14 423:7 440:7 442:7 449:7 455:7 479:14 523:7 526:7 549:21 573:7 576:14 599:7 659:7 729:7 737:7 740:7 784:7 802:7 818:7 825:28 827:7 840:7 896:7 898:7 912:7 913:7 916:14 917:7 943:56 953:7 1064:14 1097:14 1106:7 1143:28 1144:7 1145:7 1146:7 1148:7 1151:7 1152:7 1158:7 1159:7 1160:7 1161:7 1162:7 1164:21 1165:14 1166:14 1167:7 1168:7 
0.8129153826967573 0.8445253536302036 0.80067358435548 0.9083269988448183 0:153 2:230 27:76 54:76 285:76 332:76 620:153 1029:76 1169:76 
0.7752642033944852 0.7957924766817925 0.749032531658536 0.8685745814160044 0:46 2:46 48:46 49:23 54:23 168:69 194:116 209:23 312:46 455:23 1170:116 1171:116 1172:93 1173:23 1174:23 1175:23 1176:23 1177:23 1178:23 1179:23 1180:23 1181:23 
0.1997313038900591 0.2098183066559985 0.2492176147731711 0.2168887307336002 0:100 2:66 6:66 14:33 108:66 144:33 168:33 199:33 204:33 250:33 266:100 323:33 446:33 519:33 555:33 584:33 745:33 747:33 1114:33 1182:33 1183:33 1184:33 1185:33 
0.006193249035711487 0 0.1039177789583337 0 0:23 2:23 10:15 13:7 15:7 48:15 49:7 53:7 64:23 89:15 91:7 161:7 168:47 170:7 184:7 199:7 200:15 209:7 225:7 229:7 232:23 253:7 266:7 282:15 295:7 312:23 314:15 323:47 332:7 345:15 370:7 374:7 380:7 381:7 385:7 386:7 394:7 433:7 455:23 498:23 549:23 592:7 642:7 687:7 721:7 729:7 730:7 776:7 796:7 816:7 827:7 852:15 923:7 1064:7 1082:7 1101:7 1103:15 1113:7 1120:7 1165:7 1183:15 1188:31 1189:7 1190:7 1191:7 1192:7 1193:7 1194:7 1195:15 1196:7 1197:7 1198:7 1199:7 1200:7 1210:7 1212:7 1217:7 1221:7 1223:7 1224:7 1226:7 1227:15 1229:7 1230:15 
0 0 0.1097932331522468 0 0:28 2:18 10:9 11:9 12:18 13:9 14:9 15:18 16:18 18:9 40:9 52:9 86:56 108:9 122:9 154:9 164:18 209:9 221:9 252:9 265:9 266:9 278:18 285:9 289:9 306:37 308:9 315:9 329:56 332:37 354:18 364:18 365:9 384:9 405:18 425:9 429:28 434:9 466:18 478:9 510:9 576:9 608:18 622:9 691:18 719:9 751:18 762:9 787:9 816:9 819:9 1031:9 1173:9 1182:9 1246:9 1247:9 1250:9 1252:9 1253:9 1254:9 1255:9 1256:9 1258:9 1259:9 1260:9 1262:9 1263:9 1264:9 1265:9 1266:9 1267:9 1268:9 1269:9 
1 1 1 1 0:12 2:12 54:6 102:6 265:19 333:6 470:6 600:12 624:6 1065:6 1270:25 1271:19 1272:6 1273:6 1275:19 1276:12 1278:12 1279:6 1280:32 1281:12 1283:6 1284:12 1285:6 1287:6 1288:6 1289:19 1291:6 1293:19 1294:12 1295:32 1296:19 1297:25 1299:6 1300:25 1302:25 1303:6 1304:6 1305:6 1306:25 1307:19 1308:6 1309:19 1310:12 1311:6 1312:6 1313:6 1316:6 1320:12 1321:6 1322:12 1323:12 1324:19 1325:32 1327:6 1329:12 1331:6 1332:6 1333:6 1334:6 1335:6 1336:6 1338:6 1339:6 1340:6 1341:12 1342:25 1345:6 1348:12 1351:6 1355:6 1357:6 1359:6 1366:6 1368:6 1369:12 1370:6 1372:6 1373:6 1374:6 1375:6 1377:6 1378:6 1379:6 1380:6 1385:12 1386:6 1387:6 1389:6 1392:6 
0.7519868310938421 0.5871718167517377 0.5578048947089159 0.6598126071463728 1:22 48:22 109:22 110:22 115:22 127:22 134:22 313:88 339:22 383:88 402:22 448:22 451:22 474:22 498:22 600:22 665:22 687:22 691:22 775:22 777:22 863:66 1030:22 1031:22 1393:88 1395:66 1396:22 1397:22 1398:22 1399:22 1400:22 1402:22 
0 0 0 0.3822189946583031 0:61 1:40 2:40 11:20 17:20 19:20 20:20 48:20 65:20 80:20 145:20 272:122 281:20 282:40 312:20 323:20 332:20 335:20 343:20 498:20 541:20 558:20 690:20 767:20 890:20 1091:20 1234:20 1435:20 1436:20 1437:20 1438:20 1439:20 1442:20 1443:20 1444:40 1445:20 1446:20 1448:20 
0.1472919276133864 0.2436180137524206 0.1431312020928236 0.6761174319877644 0:35 7:14 15:14 18:7 26:14 40:14 48:7 54:28 67:7 70:7 90:7 95:14 105:7 107:7 108:14 115:7 127:14 135:7 136:7 137:7 160:21 161:14 168:14 172:14 204:7 209:14 211:7 221:14 251:7 252:7 266:7 285:35 312:7 323:14 333:7 335:7 349:7 350:7 365:7 400:7 419:7 440:14 563:21 569:7 572:7 591:7 607:7 651:7 690:14 714:7 732:7 784:7 787:7 886:7 923:7 1064:7 1065:7 1077:7 1086:42 1091:7 1101:7 1123:7 1151:7 1159:14 1179:14 1191:7 1464:63 1465:28 1466:7 1467:7 1469:7 1470:7 1471:7 1473:7 1474:7 1475:7 1476:7 1477:7 1480:7 1481:7 1482:7 1483:7 1484:7 1485:7 1486:7 1487:7 1488:7 1490:7 1492:7 1493:7 1494:7 1495:7 1496:7 
0.6471786484069613 0.6738653737494215 0.6597121230305886 0.7389460095298837 0:81 2:54 11:54 30:54 67:54 138:27 168:27 188:27 323:27 455:27 740:27 844:54 1038:54 1103:27 1171:27 1172:27 1177:27 1180:135 1181:135 1255:54 
0.9386151285428347 0.9756219621451246 0.9221826440526621 1 0:200 2:200 172:200 546:200 835:66 1498:66 1499:66 
1 0.7862520188571721 1 1 0:8 1:5 7:2 10:5 11:2 13:2 15:8 16:14 17:5 18:2 24:2 26:2 30:2 40:5 48:8 52:5 79:2 80:5 86:2 91:5 95:8 105:5 107:2 115:2 121:2 127:2 137:2 138:2 141:2 145:11 160:2 164:2 168:23 171:2 183:2 192:5 199:11 200:2 204:8 211:11 213:2 215:2 229:2 236:5 253:2 257:23 266:5 269:11 272:11 278:2 279:5 281:2 282:8 284:2 286:5 297:2 298:5 306:2 308:2 312:17 315:2 316:2 318:5 319:2 322:2 323:11 325:2 326:2 331:2 332:5 335:2 336:2 338:2 381:2 385:8 394:2 395:2 400:5 402:2 419:8 425:2 440:2 462:5 475:2 510:11 525:2 541:8 549:5 563:5 572:2 601:2 605:5 669:2 690:2 691:2 699:2 708:2 709:2 713:2 827:8 879:5 886:5 895:5 898:5 904:2 908:2 924:2 943:2 951:2 954:5 955:2 965:2 1025:5 1054:5 1064:2 1065:5 1086:17 1101:2 1103:5 1114:5 1129:2 1164:2 1166:14 1173:5 1197:2 1198:2 1233:2 1234:5 1243:2 1265:2 1308:2 1404:2 1405:2 1445:2 1454:2 1457:5 1461:8 1485:2 1496:8 1500:8 1501:8 1502:11 1507:23 1508:2 1509:2 1511:5 1513:2 1515:5 1516:14 1517:14 1518:2 1521:5 1527:2 1528:2 1532:2 1534:2 1536:5 1539:2 1540:2 1542:2 1543:2 1544:2 1546:2 1547:5 1548:2 1549:2 1551:2 1552:2 1555:5 1556:2 1557:5 1558:2 1559:2 1560:2 1562:2 1563:2 1564:2 1565:2 1566:2 1567:2 1568:2 1569:2 1570:2 1571:2 1572:2 1573:2 1574:2 1575:2 1576:2 1578:5 1579:2 1580:2 1582:2 1583:2 1584:2 1585:2 1586:2 
0 0 0 0.002800334909204946 0:28 2:28 6:9 10:9 15:9 17:9 19:9 20:9 26:9 27:9 30:28 34:9 52:18 62:9 88:37 91:9 95:9 109:9 110:9 145:18 151:9 162:9 171:9 199:9 209:18 213:9 236:9 256:9 258:9 263:9 285:9 289:9 290:28 291:9 292:18 297:28 317:9 323:9 325:9 332:9 344:9 350:9 388:9 400:9 402:18 455:9 496:9 498:9 502:9 552:9 568:9 569:9 601:9 690:9 713:9 714:9 740:9 741:18 745:9 759:9 835:28 859:9 896:9 913:9 1082:9 1104:9 1127:9 1197:9 1199:9 1492:9 1495:9 1528:9 1598:28 1599:9 1601:9 1602:9 1606:28 1607:9 1609:9 1610:9 1611:9 1612:9 
0.4337985091390509 0.4909791904837608 0.5145821943164534 0.5234616515744225 0:137 2:68 13:34 141:34 168:34 171:34 209:34 236:34 256:34 258:68 269:103 301:34 323:34 345:68 549:34 831:34 1103:103 1265:34 1629:34 
1 0.9133586421609147 0.786764239266833 0.8528723909881576 0:23 2:5 5:2 10:17 11:5 14:5 15:5 16:5 17:20 20:8 23:8 30:5 34:14 41:5 50:2 53:2 54:2 62:5 67:8 86:2 103:11 110:2 121:2 129:2 136:2 145:8 154:38 192:2 213:5 229:2 253:2 255:2 256:14 258:5 266:2 293:2 297:2 299:2 301:2 306:2 308:2 311:2 316:2 327:2 329:2 349:2 353:5 354:5 366:11 371:2 383:2 384:2 386:5 410:2 414:11 427:2 433:2 442:5 447:2 466:5 470:2 474:2 495:2 498:2 503:2 508:2 510:2 515:2 522:2 523:2 524:2 525:2 561:2 566:2 572:2 655:2 657:2 675:2 676:2 680:2 704:2 713:5 729:2 740:2 741:2 751:8 757:2 761:2 765:2 787:5 795:5 819:2 822:2 827:2 830:2 842:2 852:8 858:2 859:2 877:2 882:2 883:2 884:2 890:2 893:2 894:17 895:11 897:2 924:2 941:2 963:5 1038:2 1043:2 1050:2 1056:2 1113:8 1121:2 1123:5 1131:2 1134:2 1135:14 1141:2 1174:2 1183:8 1250:2 1252:2 1263:2 1265:5 1308:2 1425:8 1439:2 1442:2 1455:2 1498:8 1521:2 1560:2 1572:2 1580:2 1585:8 1589:5 1593:2 1594:11 1624:11 1625:20 1631:5 1632:2 1633:5 1635:2 1636:2 1640:2 1641:2 1642:2 1643:2 1650:2 1652:2 1655:2 1656:2 1657:2 1659:2 1660:2 1661:2 1662:2 1666:17 1667:5 1668:2 1670:2 1671:5 1673:2 1675:2 1676:2 1679:2 1687:2 1688:5 1689:2 1691:2 1697:2 1699:26 1702:2 1703:2 1706:2 1709:2 1712:11 1713:2 1715:2 1718:2 1721:2 1723:2 1724:5 1726:2 1727:2 1731:2 1735:2 1736:2 1737:2 1738:2 1742:2 1743:2 1745:8 1747:2 1748:5 1749:2 
0.9604832003336645 0.9986064380509612 0.943999348231422 1 0:250 1:250 2:250 111:250 
1 1 0.2147256158671787 0.4972672514560042 0:19 1:6 2:19 14:6 20:6 21:6 27:6 64:12 109:6 130:6 165:12 168:38 171:12 176:12 209:12 215:6 255:6 266:6 278:6 302:6 313:38 350:6 404:6 498:6 599:6 600:6 605:6 741:6 746:19 789:6 802:25 826:12 827:6 879:6 898:12 905:6 932:6 1035:6 1064:12 1101:6 1103:12 1115:6 1145:6 1159:6 1182:6 1197:6 1230:6 1265:6 1462:6 1473:6 1567:12 1660:6 1727:45 1761:25 1762:32 1763:25 1765:6 1768:6 1769:6 1770:6 1771:12 1772:12 1773:12 1774:25 1778:6 1780:64 1783:6 1785:6 1789:19 1790:6 1795:6 1796:12 1798:6 1800:12 1801:6 1804:6 1806:12 1808:12 1813:6 1819:6 1820:6 1822:6 1824:6 1826:6 1827:6 1830:12 1831:6 
0 0.01856419090905028 0.2370978367062085 0 0:31 2:12 10:18 14:6 15:12 16:6 18:6 34:25 48:6 52:6 79:6 80:12 86:6 91:6 95:18 108:6 115:6 120:6 141:12 145:6 151:6 157:6 175:6 177:6 186:6 189:6 209:6 215:6 235:12 244:12 250:6 253:12 255:6 265:12 278:6 285:12 295:6 306:6 312:6 315:6 322:6 323:18 324:6 327:6 329:25 332:12 335:6 345:6 346:12 364:6 365:6 377:6 386:6 400:6 402:6 405:6 423:6 427:6 429:6 437:6 442:6 443:6 506:6 598:6 602:6 603:18 678:6 682:6 707:6 713:6 750:6 765:6 778:12 780:12 816:6 822:6 850:12 851:6 893:6 948:6 1035:6 1053:6 1056:6 1064:6 1066:6 1106:6 1140:6 1217:6 1435:6 1443:6 1445:6 1495:12 1611:6 1624:6 1673:6 1770:6 1836:6 1837:6 1838:12 1839:6 1841:6 1842:6 1844:6 1847:12 1848:6 1849:6 1850:6 1852:6 1853:6 1855:6 1856:6 1858:6 1859:6 1860:6 1862:6 1863:6 1864:6 1865:6 1866:6 1867:6 1868:6 1869:6 1870:6 1871:6 
0.2855044450722786 0.2783458085200071 0.2476678948837819 0.3259799159936968 0:90 1:90 2:90 159:30 306:90 313:90 383:90 620:90 860:30 1178:30 1900:90 1902:30 1904:30 1905:30 1906:30 1907:30 1908:30 
0.9341264408767032 0.9709972433282684 0.9165244702191438 1 0:230 1:153 143:153 446:76 449:76 507:153 1915:153 
0.7214903945303798 0.7782319887884217 0.7173288277696436 0.8122613570726177 0:85 2:57 21:28 862:28 987:85 1783:28 1864:28 1917:85 1919:142 1921:28 1922:28 1923:28 1927:28 1930:57 1932:28 1933:28 1940:85 1941:28 1945:28 1948:28 1950:28 
0.5233652406602814 0.621649558928514 0.8072798752326475 0.661417519775143 0:13 2:5 10:2 11:8 14:5 16:2 17:2 26:5 40:11 48:2 49:2 52:2 53:2 54:35 80:2 90:2 99:2 115:2 132:2 144:16 145:16 159:2 164:5 168:11 184:2 188:2 209:2 233:2 236:5 237:2 241:2 243:8 250:2 251:2 255:22 256:5 257:2 260:5 262:2 266:24 269:8 272:5 278:2 282:8 285:2 293:2 302:5 305:8 306:5 310:5 312:13 316:2 322:11 329:2 330:5 331:5 337:2 339:2 377:2 389:13 403:2 405:2 410:11 412:2 427:2 433:2 449:5 463:2 470:2 471:2 479:2 481:5 487:2 489:2 500:2 503:5 504:2 510:5 516:2 525:2 530:2 567:5 568:2 569:2 571:2 572:2 601:5 624:2 631:2 651:11 669:2 699:2 713:11 745:2 751:2 759:2 780:2 784:2 792:2 816:2 818:2 820:2 838:24 841:2 846:2 872:2 896:2 898:8 914:8 934:5 955:2 957:16 1088:2 1103:5 1104:5 1117:2 1120:5 1121:2 1145:2 1183:8 1190:2 1250:2 1265:5 1405:2 1439:2 1442:5 1473:2 1532:2 1544:2 1551:2 1562:2 1565:2 1588:8 1607:2 1619:2 1624:2 1632:2 1641:2 1642:2 1657:2 1668:2 1687:2 1713:2 1785:2 1800:5 1839:2 1852:22 1954:5 1955:2 1956:2 1959:2 1961:27 1962:11 1964:5 1966:2 1969:2 1970:2 1971:5 1974:2 1982:2 1985:5 1988:5 1989:2 1990:2 1991:8 1992:2 1993:5 1995:2 1996:8 2001:5 2003:2 2004:2 2006:2 2007:13 2012:2 2015:2 2017:2 2019:2 2021:2 2024:2 2025:2 2026:2 2032:2 2033:2 2034:2 2035:2 2036:2 2037:2 2039:2 2042:2 2043:2 2044:5 2045:2 2046:2 2047:2 2049:2 2052:2 2053:2 2055:2 2056:2 2057:2 2058:2 2059:2 
0.9258085659217449 0.9618514374743664 0.9045412375523927 1 0:80 2:80 95:80 168:40 404:40 518:40 984:240 1031:40 2072:120 2085:80 2086:40 2093:80 2143:40 
0.2415340817383078 0.2149787385990196 0.2510323136334993 0.3563643088614172 0:36 2:36 10:36 11:36 14:18 15:90 16:18 17:36 20:18 27:36 34:18 111:18 145:18 189:18 192:18 225:18 256:18 285:18 324:18 329:18 364:18 402:18 403:18 545:54 585:18 627:18 631:54 713:18 1874:18 2189:72 2190:72 2191:18 2192:18 2194:18 2195:18 
0.7476944395469574 0.6783551638162595 0.6458127029485953 0.7435778367299919 0:117 1:58 2:117 111:58 178:117 247:58 306:58 451:117 913:58 1097:117 1495:58 1611:58 
0.0743832365861215 0.111218354178889 0.1545919505346951 0.09002843299323596 0:62 2:62 11:31 14:31 15:31 16:31 18:31 27:31 52:31 111:31 183:31 266:31 322:31 323:31 324:31 386:31 405:31 510:31 575:31 746:31 826:31 828:62 957:62 1152:62 1242:31 1611:62 
0.9631120042954452 1 0.9454179654860384 1 0:222 143:222 596:111 816:222 869:111 2241:111 
0.2047222334432063 0.2572542869650027 0.2418330747468471 0.3064784666842668 0:68 1:68 2:68 105:68 333:34 1285:68 1341:103 1351:34 2242:68 2244:68 2245:34 2246:34 2247:34 2248:34 2249:34 2250:34 2251:34 2253:34 2254:34 2256:34 
0.4032506594876119 0.42984019094089 0.4068391752404091 0.4865952434420697 0:90 2:60 11:30 20:30 30:30 49:30 67:30 168:30 282:121 455:30 501:121 844:30 1038:30 1103:30 1171:151 1172:30 1177:30 1180:30 1181:30 1255:30 
0.2500162860429091 0.1766818543481923 0.01958075377582971 0.4317771222001566 0:40 2:20 10:10 11:10 13:10 14:10 15:10 16:10 17:20 19:10 31:10 53:10 64:20 90:10 102:10 103:10 151:10 160:10 161:10 165:90 166:20 168:20 189:10 192:10 194:10 211:20 225:10 229:10 230:10 269:10 281:10 330:20 343:10 351:10 361:10 365:10 371:10 428:10 440:20 481:10 501:20 524:10 525:10 540:10 567:10 573:10 605:10 648:10 745:20 802:50 835:10 902:10 912:10 914:10 915:20 916:20 917:10 918:10 1043:10 1064:10 1139:10 1173:10 1179:10 1234:10 1838:10 1884:10 1897:10 1910:10 2046:10 2260:10 2263:10 2264:10 2265:10 
0.5735611570339422 0.5943132440932047 0.5677715629191586 0.669544916420424 0:74 2:74 11:37 20:37 49:37 67:37 168:37 455:37 501:148 844:37 1038:37 1103:37 1171:185 1172:37 1177:37 1180:37 1181:37 1255:37 
0.9182770328567118 0.9571730209833024 0.9048314797341638 1 0:214 2:142 7:71 10:71 204:71 256:214 1183:142 2305:71 
0.2227714202014693 0.2982528612819503 0.1682892572745801 0.3096760152727972 0:30 2:20 10:10 11:40 15:10 16:20 17:20 20:40 23:10 29:10 30:10 41:10 52:10 86:20 89:10 95:10 154:20 160:10 170:10 183:10 192:10 222:10 251:10 266:30 290:20 298:20 316:20 317:10 322:10 331:10 335:10 366:40 385:10 402:10 405:10 425:10 433:10 442:10 477:10 497:20 503:20 540:30 575:10 592:10 599:10 601:10 627:10 740:40 746:10 793:10 859:10 963:70 1198:10 1199:20 1242:20 1455:10 1571:10 1582:10 1624:10 1876:10 2273:10 2326:10 2327:10 2328:10 
0.5549872103348392 0.6074835730875653 0.5729695603541414 0.7206736769464998 0:62 1:125 2:62 40:31 79:93 109:31 110:31 172:62 182:93 266:31 313:62 383:62 470:31 687:31 1077:31 1518:125 2331:31 
0.4386427895591887 0.4955871027142752 0.4708925698395597 0.5908497959521791 0:114 1:114 2:57 20:28 105:28 108:28 145:28 285:28 313:57 366:28 383:57 687:28 861:114 963:28 1900:142 2400:57 2402:28 2403:28 
0 0 0 0.03991533875783592 0:25 2:16 7:8 10:25 11:25 14:8 15:25 16:8 17:16 27:16 64:8 80:8 86:8 95:8 103:8 107:8 145:8 160:8 165:16 168:25 172:25 177:8 183:8 209:8 213:8 225:8 249:8 253:8 257:8 269:8 272:8 282:8 285:16 290:8 302:8 306:8 312:8 322:42 323:8 324:8 329:8 332:16 343:8 349:8 351:8 360:8 361:8 365:8 383:8 403:8 405:8 407:8 433:8 496:8 502:8 504:8 552:8 572:8 573:8 601:8 605:25 690:8 729:8 746:8 765:8 795:8 819:8 830:8 902:8 963:16 1038:8 1140:8 1198:8 1259:8 1492:8 1549:8 1609:8 2338:16 2461:25 2462:50 2464:8 2465:8 2469:8 2470:8 2471:8 2472:8 
1 1 0.9862752898967478 1 0:11 2:3 10:15 11:8 13:1 14:8 15:15 16:8 17:6 19:3 20:1 23:6 30:1 34:3 36:1 41:3 54:1 62:5 64:1 70:3 79:1 80:1 83:1 86:6 95:5 100:3 108:1 116:3 141:1 145:10 153:1 159:1 175:1 180:1 188:3 191:1 192:3 204:1 209:6 211:3 213:5 222:1 225:5 232:1 242:5 266:1 284:1 301:1 315:6 317:1 319:1 322:3 323:6 324:1 325:1 327:3 328:3 329:8 332:5 351:3 354:15 356:1 364:5 377:1 379:1 385:1 400:3 402:1 403:1 404:5 405:5 407:8 410:6 414:1 437:1 451:1 464:1 491:1 496:1 498:3 514:3 522:5 524:5 525:3 540:3 549:10 555:5 564:1 568:5 576:3 596:1 601:1 609:1 622:1 721:3 728:8 729:6 733:1 744:3 747:1 748:1 753:6 759:1 795:1 816:1 821:5 825:3 826:3 838:15 842:1 843:1 852:1 877:1 882:1 883:1 884:1 886:1 893:3 894:3 902:3 929:1 952:8 972:1 984:10 987:8 1023:3 1025:1 1034:1 1041:10 1050:1 1053:1 1056:22 1064:1 1103:1 1115:1 1116:1 1117:1 1129:1 1174:5 1195:1 1196:1 1224:5 1241:1 1378:1 1404:1 1415:32 1438:1 1457:1 1460:11 1483:1 1495:3 1584:8 1591:1 1594:5 1622:5 1624:15 1636:15 1673:5 1703:1 1715:3 1759:1 1911:6 1950:5 2072:8 2085:6 2086:11 2093:1 2143:6 2186:5 2265:5 2327:1 2350:6 2398:1 2475:6 2476:3 2480:1 2491:39 2494:1 2516:8 2517:6 2521:8 2528:1 2530:1 2532:1 2537:3 2542:6 2545:11 2546:13 2547:8 2555:20 2577:1 2585:1 2588:3 2590:1 2593:1 2600:1 2605:3 2624:5 2631:5 2633:5 2634:5 2637:5 2639:1 2641:5 2642:3 2643:1 2644:1 2649:1 2652:1 2655:8 2669:1 2678:8 2716:1 2717:8 2740:8 2742:1 2746:1 
0.818440454011273 0.8462592045195477 0.8046973283060291 0.9284381264134346 0:181 15:90 65:45 104:90 141:45 306:90 402:45 486:45 528:90 669:45 687:45 768:136 775:45 
0.3906510340221363 0 0 0 0:20 1:20 2:20 30:10 64:10 69:20 79:10 88:20 108:20 109:20 111:71 112:10 113:10 115:10 120:10 127:20 161:10 247:10 278:10 285:10 290:10 306:10 313:51 331:10 377:10 383:40 434:10 440:10 442:10 459:10 471:10 507:10 512:10 526:10 656:10 659:10 688:10 691:10 699:20 705:10 791:10 1106:10 1139:10 1405:20 1966:10 2046:10 2405:20 2424:20 2426:10 2837:20 2838:30 2839:10 2840:10 2841:10 2842:10 2843:20 2844:10 2845:10 2846:10 2848:10 2850:10 2851:10 2852:10 2853:10 2854:10 2855:10 2856:20 2857:10 
0.6236220999168599 0.7401139498235835 0.6365489444409778 0.7182612562132743 0:71 1:35 91:35 99:35 111:71 143:107 209:71 265:71 339:35 386:35 500:35 504:35 713:35 1263:35 1404:35 1579:35 2639:35 2858:107 2860:35 2862:35 
1 1 1 1 0:8 1:13 2:8 14:4 31:4 54:21 66:21 69:4 82:4 95:4 115:4 127:8 128:8 130:4 133:17 137:8 229:4 236:4 244:4 278:4 306:4 313:8 326:4 331:4 336:4 355:8 370:4 379:8 383:13 388:4 391:4 393:4 395:4 402:48 437:4 440:4 443:4 445:4 446:4 462:4 474:17 482:4 496:4 499:4 500:17 503:4 504:43 528:17 571:8 597:8 599:13 629:21 658:4 665:8 669:4 673:8 685:4 687:4 688:4 709:4 729:4 770:4 775:17 778:4 783:4 788:4 814:4 827:13 829:4 848:4 916:4 939:4 1063:4 1066:26 1072:4 1091:4 1103:4 1106:26 1141:4 1182:4 1263:8 1265:4 1269:4 1404:4 1425:4 1551:4 1618:4 1822:8 1869:4 2001:4 2032:4 2045:4 2191:4 2221:4 2341:4 2426:4 2453:4 2455:4 2459:4 2830:13 2848:4 2860:30 2862:4 2866:4 2869:4 2870:4 2871:4 2872:8 2873:4 2874:4 2876:4 2877:8 2878:4 2879:4 2880:4 2881:4 2882:4 2886:4 2889:4 2892:4 2893:4 2894:4 2896:4 2898:4 2899:4 2900:4 2901:8 2902:8 2903:4 2904:4 2905:4 2906:4 2907:4 2908:4 2910:4 2911:4 2912:4 2913:4 
0.2899331946835065 0.2630392554584746 0.3088293044461525 0.4570241531999566 0:85 1:114 2:57 30:28 66:28 91:28 110:28 145:28 233:28 260:57 306:142 336:28 498:28 572:57 599:28 713:28 1066:28 1143:28 1759:28 1955:28 2920:57 2921:28 
0.4962848163526035 0.5150339180222028 0.5084916505385315 0.5413529392940041 0:90 2:90 48:45 89:45 110:45 136:45 222:45 410:45 531:90 622:45 629:45 748:90 844:45 1255:45 2221:45 2223:45 2954:90 
0.2850729337302157 0.3278067544120041 0.3199699934530305 0.3608591796063667 0:181 1:121 2:90 109:60 141:30 287:90 383:30 496:60 498:30 504:60 631:30 691:30 728:30 859:30 2957:30 2958:30 2959:30 2960:30 
0.6189982955963849 0.6650525513433037 0.5360651629569764 0.6082141113557278 0:43 2:43 62:21 95:21 159:86 222:21 225:21 329:21 346:21 351:43 498:43 528:21 541:21 606:21 713:21 746:21 762:43 916:43 1166:21 1444:43 1567:21 1624:21 1870:21 2874:43 2962:86 2963:86 2967:21 2970:21 2977:21 
0.501521743122967 0.5437304687261103 0.511930153695814 0.5866520003310131 0:200 1:150 2:100 83:50 91:50 95:50 209:50 407:50 409:50 587:50 726:50 733:50 1458:50 2985:50 
0.5878626322568846 0.04182841016083279 0.02062115418654207 0 0:44 2:22 48:22 54:22 64:22 65:11 69:11 79:11 108:11 111:11 132:11 145:44 161:11 189:11 209:11 215:11 242:11 243:22 247:22 250:11 272:11 285:11 289:11 316:11 386:11 439:55 463:11 489:11 495:11 525:11 568:11 570:22 588:11 591:11 601:11 759:11 818:11 896:11 898:11 966:22 1064:11 1101:11 1118:11 1144:11 1182:11 1494:11 1539:11 1856:11 1863:11 2001:22 2195:11 2221:11 2427:11 2455:11 2459:11 2850:11 2929:33 2963:33 2986:22 2990:22 2992:11 2993:22 2995:11 2996:11 
0.955008083244852 0.9843600067321899 0.8571323336051608 1 0:18 49:18 67:18 178:18 311:111 416:18 442:18 479:37 557:18 603:18 828:37 861:111 1089:18 1166:18 1308:92 1517:37 1713:18 1727:18 2296:37 2312:74 2830:18 2963:18 2998:74 3000:55 3033:18 3036:18 3041:18 3046:18 
0.8586710327041732 0.8989053267808053 0.8527320710280796 0.9581004604635207 0:105 2:105 40:157 204:52 323:52 400:52 549:105 720:52 1103:105 3058:157 3059:52 
0.947135485633065 0.9568332780647948 0.932596710705857 1 108:47 236:47 266:47 402:95 470:47 687:95 775:95 777:47 778:47 1133:47 1404:95 1588:95 2920:95 3060:95 
0.5351007941806543 0.3026990178920355 0.5343623796432896 0.5843993294202252 2:24 7:12 13:12 15:24 18:12 64:24 65:12 70:12 90:12 95:12 104:12 172:12 184:12 186:12 187:24 192:24 194:12 199:12 202:12 204:12 243:12 266:24 282:12 286:12 298:12 335:12 343:36 346:24 361:24 401:12 402:12 407:12 417:36 423:12 425:12 449:12 477:12 569:12 570:12 574:36 576:12 596:12 598:12 602:12 628:12 631:12 720:24 768:12 777:12 789:12 884:12 889:12 915:12 947:12 1106:24 1210:12 1448:12 1568:12 1671:12 2185:12 2390:12 3087:12 3090:24 3092:12 3097:12 
0.9283160763564468 0.9638283420824777 0.9119736788872204 1 0:125 2:208 69:41 108:83 111:41 361:166 3105:166 3106:166 
0.1770293919482427 0.5301932077942223 0.5942218054446368 0.2295904069965139 0:25 1:22 2:7 7:3 14:11 15:3 16:3 29:7 30:3 34:3 54:14 69:7 82:3 91:7 100:3 102:3 104:3 105:3 106:3 107:7 109:7 112:7 115:7 120:3 121:7 129:7 137:3 138:11 141:3 160:3 164:22 167:3 172:3 177:3 182:3 233:3 243:3 246:3 265:3 266:3 280:3 285:3 290:7 293:7 306:3 308:3 313:3 333:3 336:7 345:3 349:3 370:3 383:7 402:7 419:7 434:3 442:11 445:3 448:3 470:3 493:11 498:3 568:7 572:18 577:3 579:3 591:3 596:3 657:3 660:3 665:7 668:3 673:11 679:3 685:3 687:3 688:3 691:18 699:3 721:3 726:3 740:7 751:11 764:3 768:11 775:7 777:7 779:7 792:7 827:7 842:11 848:3 849:3 902:3 941:7 943:3 952:3 1113:3 1158:11 1159:3 1178:3 1182:3 1299:3 1439:3 1499:3 1534:3 1536:3 1572:3 1632:3 1642:11 1659:7 1688:3 1759:3 1838:3 1897:3 1923:3 1990:3 1991:3 2036:7 2045:3 2057:3 2207:3 2209:3 2348:3 2349:3 2353:3 2415:3 2426:7 2429:3 2453:3 2458:3 2469:3 2517:3 2542:3 2585:3 2637:3 2871:3 2879:3 2882:3 2907:3 2908:3 2932:7 3072:3 3107:33 3109:25 3111:3 3112:3 3114:3 3115:3 3116:3 3121:3 3123:7 3126:3 3127:3 3129:3 3131:3 3132:3 3133:3 3135:7 3138:3 3140:11 3141:3 3143:3 3144:3 3145:11 3147:3 3151:3 3152:7 3153:3 3157:7 3158:3 3159:3 3160:3 3162:3 
0 0 0 0.4562754513139687 0:80 1:20 2:20 14:20 107:20 111:20 112:20 132:20 137:20 145:20 160:20 172:40 178:40 233:20 269:20 272:60 282:20 285:20 381:20 385:20 572:20 660:20 691:20 726:20 738:20 849:20 913:40 952:20 1096:20 1183:20 1528:20 1534:20 1589:20 1827:20 1911:20 2238:20 2405:20 3165:20 3167:20 3168:20 3170:20 3171:20 
0.1632515719994594 0.2392203950214204 0.1894481465523231 0.2881725507609925 0:75 1:125 2:50 41:25 109:25 110:50 111:25 112:50 120:25 154:25 157:25 306:125 331:25 361:25 386:25 402:25 442:25 504:25 691:50 1763:25 2480:50 2836:25 3129:25 3191:25 3192:25 
0.2761973192101329 0.2537109984860093 0.2396756563308007 0.3462326756178515 0:30 1:30 2:30 34:15 54:60 116:15 154:15 172:45 242:60 257:15 283:15 385:15 389:15 410:30 421:45 523:45 669:30 707:15 828:15 835:15 837:15 849:15 869:15 963:15 1141:15 1182:15 1190:15 1234:15 1513:15 1666:15 1756:15 1874:15 1882:15 1892:15 2043:15 2637:60 2902:15 2948:15 3195:30 3196:15 3199:15 3204:15 3205:15 3206:15 3208:15 
0.9628539976477525 1 0.946173165074321 1 0:222 2:222 397:222 495:222 541:111 
0.02807803402843989 0 0 0 0:46 1:46 2:46 108:23 111:93 134:23 145:23 176:23 313:46 346:23 527:23 550:46 683:23 687:23 699:23 746:23 798:23 803:23 828:23 1727:23 1763:23 1772:23 1778:23 1780:23 1795:23 1806:23 2291:46 2877:23 3219:23 3220:23 3221:23 3223:23 3225:23 3226:23 
0.7901190320002063 0.8232201184022093 0.7782554293070288 0.8849026492324592 0:230 2:230 30:76 121:76 370:76 400:76 441:76 655:76 669:76 
0.9698908828885461 1 0.9518390670982915 1 0:250 2:250 860:250 2405:250 
1 0.378157282093971 0.1307685514652727 0.2408200966543254 0:16 40:24 54:8 69:64 92:8 107:16 108:16 109:8 110:8 111:16 113:8 115:16 138:8 222:8 233:8 242:8 285:8 313:72 322:8 331:16 383:72 402:40 440:8 443:8 446:8 474:8 481:8 495:8 504:8 510:8 545:16 580:16 601:8 620:24 655:8 659:8 669:8 688:16 689:40 761:8 862:16 939:16 941:8 1123:8 1195:8 1264:8 1265:32 1534:8 1560:8 1640:8 1745:32 1900:40 2457:8 2642:8 2840:8 2842:8 2854:8 3072:8 3129:8 3231:8 3232:8 3233:8 3234:16 3235:8 3237:8 3238:8 3239:8 3240:8 
0.4322833470270183 0.4056550572652703 0.3845742184095701 0.4877687595954111 0:51 1:76 2:76 104:51 108:51 172:51 306:51 313:25 383:102 446:25 568:51 655:25 810:25 852:76 1743:76 1745:25 2990:76 3243:76 
0.4125078082908603 0.4338790049724029 0.4307562856052254 0.5189655967554992 0:107 1:107 2:71 29:35 30:35 110:35 111:71 121:35 177:35 263:71 266:35 385:35 503:71 751:35 913:35 2200:107 3268:71 
0.975421233594235 1 0.9581263678880305 1 0:333 2:333 3272:333 
0.7921663937709504 0.8267261781315082 0.7872095864370273 0.8881320929638328 0:111 2:166 95:55 196:111 260:55 311:166 498:55 541:55 835:55 2916:55 3273:111 
0 0.01500204666980438 0 0.09388136771626726 0:500 2:500 
0.05710914194804648 0.07648800737671752 0.06918757428882247 0.1206188636580307 0:120 1:120 2:120 5:40 11:40 17:40 20:40 27:40 30:40 172:40 173:40 657:40 802:80 825:40 952:40 963:40 1195:40 1962:40 
0.08581184671328029 0 0 0 0:18 1:18 2:18 14:9 19:9 29:9 31:9 40:9 69:18 107:9 108:9 110:9 111:9 113:9 132:9 133:18 164:9 172:18 183:9 252:9 290:18 306:9 313:18 329:9 331:18 383:18 402:18 470:9 471:9 474:27 481:9 507:9 570:9 572:9 587:9 665:9 669:9 679:9 685:9 687:9 691:27 692:9 699:18 704:9 751:9 775:18 780:9 791:9 794:9 827:9 840:9 849:9 1106:9 1131:9 1190:9 1195:9 1265:18 1400:9 1435:9 1462:9 1487:9 1498:9 1499:9 1551:9 1595:9 1759:9 1866:9 2223:9 2236:9 2375:9 2389:9 2415:9 2426:18 2993:9 3072:18 3129:9 3159:9 3160:9 3278:46 3280:9 3281:9 3282:9 3283:9 3285:9 
0.03778659085807507 0.05153747393506081 0.05855250182470473 0.0559587795706693 0:166 2:71 15:47 30:23 34:23 54:23 66:23 110:23 168:23 242:47 266:23 393:23 402:47 455:23 546:23 859:23 1113:23 1268:23 1607:23 1745:47 2331:71 2637:47 2862:23 2882:23 3295:71 
0.452956973083037 0.4334267340293015 0.4386995840956354 0.5063625611678126 0:83 1:55 2:55 88:83 109:55 112:27 122:27 306:27 402:27 512:27 939:27 1046:55 1106:27 1123:27 1174:27 1657:27 2207:27 2862:27 3302:55 3303:83 3304:111 3305:27 
0.6469958763070384 0.6840969076817504 0.6516550920211953 0.7302347312591143 0:142 2:142 88:142 105:47 181:47 285:47 1173:47 2405:142 2424:47 2855:47 3165:47 3240:47 3310:47 
0 0 0 0.06178381088626865 0:118 1:44 2:29 12:7 15:14 30:7 54:14 79:7 92:7 107:14 108:7 109:14 110:22 138:7 182:7 183:7 233:7 242:66 266:7 313:14 343:7 383:14 394:7 410:7 461:14 470:7 498:7 525:7 526:7 569:96 572:7 597:14 599:7 600:7 687:37 691:14 829:7 840:7 923:7 935:7 1089:7 1173:7 1183:22 1528:7 1768:14 2043:7 2389:7 2400:51 2494:7 2637:66 3129:7 3305:7 3314:14 3315:7 3318:14 3319:14 3321:7 
0.6367388801584392 0.6664382307409508 0.6353767474826326 0.7178041801093711 0:150 1:150 2:150 21:50 386:50 1567:50 1727:50 1771:50 1773:50 1780:50 1900:150 3223:50 
0.189163394943777 0.1336780701013004 0.1258323904437339 0.1880752020756385 0:60 1:90 2:90 69:30 111:90 251:30 285:60 313:90 383:60 393:30 446:30 448:30 474:30 810:30 1182:30 1495:90 1904:60 3339:30 3340:30 
0.3830796491250105 0.171746035269541 0.2993184903108304 0.3472180746225045 0:37 2:22 15:7 26:7 30:60 34:7 48:7 69:7 86:7 88:7 91:7 92:15 94:7 95:22 108:7 153:7 154:7 183:7 189:15 231:15 236:15 246:7 247:7 250:7 266:7 269:37 278:7 282:37 290:7 343:7 377:7 383:7 401:7 402:7 410:7 417:7 419:15 421:7 423:7 426:7 493:7 495:15 497:7 498:7 528:7 563:7 571:7 593:7 655:7 729:7 757:7 764:7 945:7 1114:7 1121:7 1140:15 1167:7 1178:7 1269:7 1404:7 1481:7 1482:7 1726:15 1849:7 1874:15 1886:7 2856:7 3327:37 3342:30 3345:90 3346:45 3349:7 3355:7 3357:7 3358:7 3359:7 3360:7 3361:7 
0.4212901738658376 0 0 0 0:34 1:34 2:34 31:17 40:17 95:34 109:17 110:17 111:34 127:34 145:17 246:17 247:34 252:17 263:17 278:17 306:17 313:51 331:17 336:51 349:17 383:51 402:34 482:17 496:17 512:17 600:17 651:17 655:17 688:17 713:34 726:17 818:17 1173:17 1745:17 1769:17 1969:17 2046:17 2209:17 3133:17 3366:34 3368:17 
0.4286831580195806 0.4433297762983321 0.4307213784002615 0.4777790172145543 0:160 2:160 10:40 19:40 20:80 91:40 177:40 285:40 385:40 660:40 1167:40 1221:40 1253:40 1408:40 2839:120 3371:40 
0.4506312959690577 0.4987818090226322 0.482268286440233 0.5567354336698018 0:93 1:62 2:62 104:93 105:93 111:31 383:31 446:31 504:31 506:187 769:62 810:31 1436:31 1737:31 3287:31 3288:93 
0.8981687048512669 0.9344071753463089 0.8838012841077673 1 0:214 2:214 31:71 172:71 306:71 481:71 2405:71 3410:214 
0.4743943372664728 0.4979656543869437 0.4816514372715168 0.5376542111489092 0:142 2:114 11:57 31:28 54:28 145:28 172:28 283:57 401:28 402:57 488:114 546:28 2293:28 2465:28 2986:28 3411:57 3413:114 3414:28 
0.3967176480688334 0.4463079677092239 0.4249170029601114 0.5180277255858868 0:100 1:150 2:100 30:50 105:150 173:50 402:50 482:50 503:50 572:50 1106:50 2400:50 3186:100 
0.07568484243045542 0.02524608284276189 0.0306318161874057 0.2176300331476469 0:40 1:10 2:20 26:10 48:10 49:10 80:10 95:10 105:10 140:10 145:10 151:10 153:10 154:10 172:30 189:10 192:10 194:10 209:10 253:10 255:10 256:20 258:10 313:20 317:10 330:10 343:20 349:20 361:10 365:20 386:10 402:10 410:10 426:10 429:10 451:10 481:10 495:20 530:10 566:10 570:10 573:20 580:10 601:10 605:10 647:10 740:30 741:20 759:10 828:10 835:10 861:10 1056:10 1103:10 1117:10 1145:10 1299:20 1573:10 1666:10 1743:10 2195:10 2372:10 2405:91 2986:10 3170:10 3183:20 3421:10 3422:10 3427:10 3428:10 3431:10 3432:10 
0.8011899428775535 0.8287134762558345 0.7871176142180477 0.8991098167949287 0:157 2:105 107:52 111:52 154:52 172:52 285:52 507:157 691:52 822:52 937:52 1588:157 
0.5927596857405317 0.4696283796861248 0.4516867801143121 0.4866051842021967 0:120 2:120 109:80 111:80 247:80 385:40 397:120 532:40 655:40 709:40 713:40 792:40 1813:40 2943:40 3129:40 3434:40 
0.8823820730051269 0.9168482795018649 0.8671260526293202 0.9858126072309086 0:125 2:187 88:187 105:125 204:125 451:125 3439:125 
1 0.1937835201190694 0.3670396393232653 0.08543450539626402 0:10 2:10 7:10 12:5 31:5 54:10 57:5 65:5 69:5 85:10 90:5 95:5 107:10 108:5 109:10 110:10 112:5 113:10 115:5 117:5 122:10 127:5 133:15 134:5 138:10 167:5 229:5 243:10 247:5 293:5 313:20 331:15 336:5 344:5 383:20 388:10 393:5 402:25 434:5 438:5 455:5 462:5 464:5 470:5 471:5 474:15 493:10 496:5 502:5 503:5 516:5 555:5 596:5 629:5 657:5 658:5 661:5 665:10 679:5 680:10 688:10 699:5 700:5 746:5 766:10 775:25 777:5 787:5 849:10 896:5 904:5 954:5 1044:5 1091:5 1106:5 1182:10 1183:5 1224:5 1269:5 1400:5 1404:5 1546:5 1570:10 1712:5 1822:5 1847:10 2015:5 2019:5 2057:5 2223:5 2236:5 2347:5 2389:5 2426:10 2443:5 2453:5 2458:5 2459:5 2855:5 2860:40 2880:5 2882:5 2886:5 2957:5 3133:5 3195:5 3205:5 3329:5 3331:5 3359:5 3456:5 3457:5 3458:5 3462:5 3463:5 3464:10 3465:10 3466:5 3467:5 3468:5 3469:5 3470:5 3471:10 3472:5 3473:5 3474:5 3475:5 3476:5 3477:5 3478:5 3481:10 3487:5 3488:5 3489:5 3490:5 3491:5 3492:5 3493:5 3494:5 3495:5 3496:5 3497:5 3500:5 3501:5 
0.3557414842739207 0.1341939961475546 0.1033144904670805 0.1557068247420476 0:116 2:46 66:23 105:23 121:46 149:69 181:23 247:46 272:69 306:23 446:23 512:23 541:46 776:23 785:23 902:23 913:23 1103:46 1179:23 1229:23 1444:23 1611:23 1882:23 2341:69 2424:23 3504:46 3508:23 
0.8235397063779667 0.8220523049298212 0.7830199071142014 0.8861056468751676 0:58 1:19 2:39 88:58 109:39 110:19 111:39 112:19 113:19 285:19 329:39 402:58 427:19 446:19 490:19 495:58 498:19 691:19 713:19 810:39 1119:19 1167:19 1633:19 2046:19 2424:58 2839:215 
0.8775140023123442 0.9150957131274886 0.8661734151079995 0.9840574114390434 0:166 2:222 79:55 272:166 470:166 541:55 545:55 2271:55 2461:55 
0.1936290807310184 0.2026111666564237 0.2225266602247878 0.2130345518267042 0:125 2:125 34:25 79:25 109:50 110:50 134:50 322:25 493:25 507:25 541:25 545:25 655:25 656:25 1106:25 2271:25 2346:25 2461:25 2850:25 2920:100 3518:100 3520:25 3521:25 
1 0.6606396984908026 0.6094569077513402 0.7630058545759943 2:11 12:2 14:2 34:14 40:2 54:11 69:2 90:2 104:2 107:5 108:2 109:2 111:11 112:2 115:2 121:2 122:2 126:5 132:8 141:2 153:2 157:2 162:2 192:5 204:2 222:2 245:35 247:5 252:5 278:2 285:8 306:41 331:2 336:2 337:2 339:2 352:5 366:2 377:2 381:2 382:2 384:2 392:2 393:2 394:2 401:8 427:2 429:8 432:8 433:2 441:2 442:2 449:23 450:2 462:2 463:2 466:2 474:2 478:2 481:29 482:2 483:2 484:5 494:2 495:2 498:2 501:14 502:8 507:2 512:2 515:2 526:2 527:5 572:2 591:2 605:2 612:2 629:2 631:2 656:2 664:2 665:2 681:5 688:2 705:5 713:2 725:2 726:2 729:2 787:2 790:5 810:2 842:2 867:8 930:2 934:5 939:2 948:2 966:2 984:2 1029:8 1030:53 1085:2 1115:2 1141:2 1178:2 1182:8 1191:5 1193:2 1195:2 1197:2 1250:5 1253:2 1404:5 1405:2 1425:2 1426:2 1486:2 1508:2 1534:2 1539:2 1587:2 1688:2 1702:2 1745:5 1748:2 1768:2 1785:2 1848:2 1876:2 2047:2 2070:2 2071:2 2195:2 2209:2 2326:2 2421:2 2426:5 2458:2 2464:2 2886:5 2950:2 3060:2 3127:2 3237:5 3295:2 3310:2 3331:2 3391:2 3407:2 3488:2 3490:2 3549:2 3561:44 3563:2 3564:5 3565:8 3566:2 3567:2 3568:2 3569:2 3570:2 3571:2 3574:2 3575:5 3576:14 3578:2 3580:2 3581:5 3583:2 3584:2 3585:2 3587:2 3588:2 3589:5 3591:2 3592:2 3593:8 3595:2 3596:2 3597:2 3598:2 3599:2 3602:2 3604:2 3605:2 3606:8 3607:5 3610:2 3611:2 3612:5 3613:2 3614:5 3617:2 
0.04845087109498667 0 0 0 1:9 2:18 54:18 105:27 107:45 111:72 151:9 222:9 236:9 243:18 245:18 249:9 260:9 310:9 361:9 371:9 383:18 386:9 402:9 421:9 432:9 446:27 449:9 493:9 495:9 502:18 506:36 507:9 576:9 648:9 649:9 687:18 775:9 810:18 860:9 861:9 964:9 1030:27 1085:9 1253:9 1884:9 1948:18 2854:9 2941:9 2951:9 3286:36 3287:9 3288:9 3291:81 3292:9 3293:9 3337:9 3339:9 3340:9 3576:9 3588:9 3646:9 3647:9 3650:9 3653:9 3657:9 3658:9 3659:9 3660:9 3661:9 3663:9 3664:9 3666:9 3671:9 3672:9 
0.9760556543369945 1 0.9584081473180562 1 2:250 108:250 211:125 508:125 3674:250 
0.9457510337355154 0.9733124846349998 0.917111462863617 1 0:27 1:27 2:27 557:13 1800:202 2291:13 2339:27 3676:148 3681:67 3682:54 3697:13 3701:13 3705:54 3706:54 3707:27 3713:13 3718:67 3719:81 3724:27 3731:13 3755:13 3763:13 
0.9760259493243619 1 0.9587494516361506 0.9980421363833767 0:500 2:500 
0.7863112734614311 0.6871111388777656 0.6776246000300692 0.670601572734254 12:15 14:30 34:15 40:15 41:15 54:75 63:15 121:15 132:15 145:15 154:15 161:15 183:15 245:15 252:15 306:30 316:15 329:30 339:15 349:15 402:15 421:45 436:15 446:15 449:15 474:15 481:30 486:15 494:15 516:30 546:15 572:15 670:15 691:15 707:30 757:15 785:15 1060:15 1174:15 1195:15 1956:15 2209:90 2210:15 3165:15 3779:15 3781:15 3782:15 3783:15 3784:15 
0.4118248763684689 0.9809219522276488 0 0 1:40 2:27 30:13 31:6 66:6 69:6 79:6 104:81 105:20 107:6 109:6 110:13 111:13 112:6 113:6 127:6 136:6 137:6 177:13 182:6 222:6 247:20 252:6 260:6 263:6 266:6 285:27 293:6 295:6 296:6 306:6 313:6 331:6 336:6 370:20 383:6 384:6 386:6 394:13 402:6 433:13 440:13 442:40 463:6 470:6 496:6 498:6 500:6 510:6 670:6 726:13 728:6 729:13 736:6 757:6 810:6 830:6 1063:6 1072:6 1244:13 1264:13 1265:6 1745:20 1748:20 1865:6 1870:13 1969:6 2191:6 2426:6 2452:13 2637:13 2830:6 3133:6 3233:6 3302:13 3521:6 3776:6 3788:40 3789:6 3790:27 3792:6 3794:6 3795:6 3796:6 3797:6 3802:6 3805:6 3806:6 
0.3569809834433327 0.2528312482490654 0.2231068396109875 0.3163904271357396 0:31 2:20 10:31 12:10 15:20 26:10 31:20 37:10 40:10 41:10 83:10 95:10 108:20 118:20 154:10 176:10 180:20 181:10 204:20 209:20 236:10 326:10 332:10 354:10 364:10 377:20 385:20 399:10 401:20 407:31 412:10 460:10 474:10 489:10 522:10 537:10 566:10 572:20 655:10 734:10 740:10 751:10 826:10 877:20 886:10 889:52 890:10 897:10 952:10 963:10 1040:10 1056:10 1127:10 1193:10 1435:10 1458:10 1624:31 1625:10 1666:10 1718:10 2006:10 2398:10 2639:10 2901:10 3807:20 3811:20 3812:10 3822:10 3824:10 
0.6032471137229346 0.5686167593242893 0.05593148672134698 0.3565719155578257 1:12 2:36 16:12 34:12 74:12 95:12 111:12 116:12 145:12 178:12 182:12 188:12 192:12 209:24 222:12 229:12 236:12 247:12 248:12 313:12 319:12 328:12 351:12 356:12 361:24 379:12 383:12 389:24 421:12 442:12 464:12 466:24 481:12 498:12 503:12 510:12 585:12 600:12 669:12 723:12 751:12 826:12 828:12 835:12 855:12 858:12 882:12 884:12 901:12 1050:12 1053:12 1056:12 1091:12 1114:12 1115:12 1116:12 1134:24 1135:24 1164:12 1196:12 1471:12 1483:12 1528:12 1579:12 1870:12 2070:24 2455:12 2460:12 3331:12 3337:12 3827:12 3832:12 3835:12 3839:12 
0.8807780970623276 0.9138178242541716 0.8696566487742148 0.9841094255889544 2:166 11:55 19:55 20:55 196:166 244:55 255:55 502:55 844:55 963:55 3841:166 3842:55 
0.7803590240835956 0.4933251577006138 0.4168702840406399 0.4508936128943568 2:30 26:20 34:10 104:30 106:20 115:10 121:10 133:20 137:10 155:10 166:10 229:10 233:10 252:20 306:10 313:30 331:20 336:10 337:10 352:10 365:10 383:50 434:40 454:10 471:10 474:10 481:10 493:20 570:20 591:10 602:10 687:20 688:10 691:20 707:10 760:10 863:10 1033:10 1106:10 1195:10 1420:20 1555:10 1759:10 1884:50 2400:10 2877:10 2879:10 2898:10 2983:30 3129:10 3462:10 3478:10 3490:10 3776:10 3844:100 3846:10 3847:10 3848:10 3850:10 3853:10 3854:10 3856:10 
0.7638700683652105 0.603799801187738 0.8130686934257511 1 0:8 11:35 14:17 15:17 16:8 19:26 20:17 23:8 30:17 40:35 48:8 64:8 79:17 88:8 91:17 137:8 145:8 151:8 160:8 172:8 182:8 183:8 188:8 192:17 233:8 252:8 266:8 292:8 293:8 306:8 312:8 315:8 325:8 331:26 338:8 400:8 405:8 432:8 443:8 445:8 448:8 461:8 470:8 498:8 563:53 569:8 585:8 598:8 603:8 606:8 690:8 746:8 769:17 821:8 835:8 858:8 867:8 1077:26 1159:35 1167:8 1481:8 1482:8 1509:8 1511:8 1536:8 1540:8 1546:8 1555:17 1559:8 1770:8 2238:17 2320:8 2328:8 2382:8 2384:8 3159:8 3165:8 3414:8 3864:35 
0.7638267408200474 0.5209619257849977 0.3834457400042774 0.4537651107097845 1:11 12:11 57:11 85:11 89:23 107:11 109:11 110:11 111:11 133:11 153:11 183:11 229:11 236:11 243:11 255:11 313:59 328:11 331:11 350:11 383:59 402:35 446:11 474:11 492:11 493:11 527:11 555:11 599:11 679:11 683:11 688:11 719:11 757:11 775:35 792:11 863:35 1079:11 1160:11 1395:35 1396:11 1399:11 1487:11 1574:11 2021:11 2221:11 2236:11 2387:11 2389:11 2455:11 2873:11 2886:11 3143:11 3283:11 3472:11 3611:11 3872:71 3876:11 3878:11 3881:11 3882:11 3884:11 
0.03306127644472842 0 0.007124495879203384 0 0:19 2:13 5:6 10:6 11:13 14:6 16:6 17:13 19:6 20:6 34:13 48:13 53:6 54:19 65:6 69:6 70:26 79:13 90:6 91:6 95:6 104:13 107:6 110:6 111:6 138:6 145:6 151:6 155:6 161:6 168:13 182:6 192:13 209:33 213:6 225:6 233:6 247:6 266:13 269:6 272:13 282:19 285:19 306:6 312:13 317:6 323:13 325:6 330:6 343:13 351:6 365:13 377:26 385:6 386:19 421:6 433:6 443:6 455:6 466:6 470:6 481:6 482:6 492:6 495:6 498:6 503:6 504:6 510:6 540:6 541:6 570:6 572:6 573:13 596:6 599:6 685:6 691:6 835:6 852:6 869:6 963:6 1113:13 1159:6 1190:6 1195:6 1494:6 1597:13 1989:6 2070:6 2195:6 2223:6 2230:6 2353:6 2465:6 2869:6 2900:6 3272:6 3321:6 3578:6 3788:66 3805:6 3842:13 
0.9102156735022193 0.9390244016133911 0.8928728825962829 1 2:153 11:76 213:76 222:76 306:153 528:76 951:76 3561:153 3612:153 
0.2817193297859247 0.237236178748458 0.3011476490029232 0.525877040902765 2:54 10:27 11:27 16:27 17:27 30:27 53:27 104:81 111:27 140:27 266:54 272:81 328:27 343:27 498:27 506:27 552:27 655:27 713:27 729:27 844:81 855:27 856:27 1038:27 1483:27 3355:27 3531:27 3612:27 3897:27 
0.504720426747025 0.3062014408878027 0.09771447413658482 0.7446541715138719 2:12 11:19 13:12 15:38 17:19 18:6 19:6 20:6 26:6 27:6 30:12 34:12 53:19 54:32 58:6 69:12 70:6 83:19 84:6 90:12 91:6 92:6 95:6 108:6 155:6 164:6 165:6 172:12 182:6 189:6 204:6 209:6 222:6 245:12 249:6 282:12 285:12 302:6 306:6 310:6 317:6 343:19 349:6 354:6 365:6 370:6 374:38 377:6 405:6 418:6 423:6 425:6 428:6 433:6 486:6 494:19 502:19 541:6 563:6 573:12 597:6 651:6 729:12 745:6 764:6 844:6 934:6 949:6 957:6 1023:6 1035:6 1085:6 1103:12 1140:6 1263:6 1404:6 1414:6 1458:6 1548:6 1726:19 1852:19 2186:6 2191:6 2270:6 2273:6 2341:6 2746:6 2898:6 3059:6 3249:6 3384:6 3434:6 3489:6 3516:6 3591:6 3653:6 3784:19 3923:38 3926:6 3930:6 3937:6 3939:6 
0.007964850433707003 0 0.00714268676665403 0.33817039510328 2:22 10:11 11:22 14:11 15:22 16:22 34:11 48:22 62:11 64:11 95:33 102:11 104:33 137:11 154:11 161:11 168:11 172:22 189:11 192:11 196:11 200:11 221:11 222:11 233:11 249:11 260:11 266:11 279:11 285:11 293:11 312:11 317:11 318:11 323:11 324:22 329:11 348:11 353:11 354:11 388:11 393:11 402:22 405:11 417:11 449:11 503:11 669:11 777:11 826:11 843:11 852:11 855:11 898:11 947:11 1034:11 1064:11 1091:11 1103:11 1137:11 1234:11 1398:33 1494:11 1552:11 1610:11 1675:11 1842:11 1844:11 1850:11 2471:11 3948:11 3951:11 3952:11 3953:11 3955:11 3956:11 
1 1 1 1 2:21 13:10 19:10 26:10 31:10 34:10 112:10 130:10 137:10 139:21 141:10 145:10 153:32 162:21 187:10 233:10 285:10 289:10 293:21 308:10 314:10 337:10 377:10 383:10 394:10 447:10 454:10 462:10 481:10 507:10 576:10 584:21 599:10 692:10 713:10 828:10 1030:10 1031:10 1066:10 1168:10 1182:10 1470:10 1610:21 1870:10 1908:10 2181:10 2183:10 2458:10 3165:10 3189:10 3204:10 3205:10 3462:32 3474:10 3549:10 3902:10 3960:65 3961:10 3962:10 3963:10 3965:10 3967:10 3968:10 3969:10 3970:21 3971:10 3972:10 3973:10 3974:10 3975:10 3977:10 3980:10 3981:10 3982:10 3983:10 
0.6537393342502524 0.507177609720407 0.5021267261812393 1 1:9 2:18 11:9 15:9 16:9 19:9 40:9 64:9 83:9 91:9 103:9 104:45 108:9 112:9 145:9 151:9 172:18 183:18 187:9 189:9 192:9 250:9 253:9 269:9 272:36 282:9 310:9 322:9 325:9 335:9 343:9 344:9 360:9 378:9 386:36 405:9 425:9 427:9 442:9 446:18 484:9 501:45 525:9 563:27 570:9 573:9 583:9 599:9 605:9 751:9 783:9 827:9 915:9 923:9 957:9 1064:9 1089:9 1179:9 1221:9 1436:18 1444:9 1470:9 1508:9 1611:9 1668:9 2238:9 2239:9 2327:9 2829:9 2886:9 2935:9 3300:9 3470:9 3984:54 3985:9 3986:9 3987:9 3988:9 3989:9 3990:9 3991:9 3992:18 3993:9 3994:9 
0.5320967637335848 0.1818680527975384 0.2968405686505061 0.4154983910092055 1:46 2:46 6:23 7:23 30:23 104:46 107:46 108:23 109:23 111:46 112:46 113:23 115:23 127:46 233:23 247:23 285:23 313:46 383:46 448:23 516:23 688:23 691:23 699:23 1534:23 1748:116 2223:23 3085:23 3129:23 3133:23 
0.3776004356987255 0.3809782328589785 0.3550242706691683 0.4075961869995343 2:195 69:48 105:170 200:24 247:24 507:24 644:73 977:48 984:97 987:24 1119:73 1174:24 2296:48 3701:24 3914:48 12939:48 
0.6249398019374222 0.6583981270651715 0.6181783828381494 0.7075052506851538 2:153 105:230 145:76 156:76 313:76 337:76 525:76 765:76 1469:76 8988:76 
1 0 0 0 2:28 40:14 99:14 105:28 106:14 109:14 111:14 112:14 182:14 225:14 245:14 247:42 260:28 298:14 306:28 313:14 383:14 386:28 434:14 446:14 481:28 485:14 504:42 510:14 529:14 541:14 631:14 655:14 713:28 729:14 830:14 863:14 923:14 941:14 1060:14 1091:14 1247:14 1745:14 1759:14 2209:14 2238:14 2239:14 2389:14 2400:14 2639:14 2855:14 2862:14 2983:14 2996:14 3569:14 3570:14 3574:14 3599:14 3647:14 4434:14 7574:14 7631:14 12947:14 12949:14 
0.0367821848934678 0 0 0 2:75 24:18 57:18 69:75 82:18 105:37 111:94 229:18 260:18 278:18 313:56 383:56 433:18 448:18 463:37 481:18 489:18 495:18 507:18 624:37 647:18 687:18 688:18 1182:18 2202:37 2438:18 2843:18 2854:37 3195:18 3456:18 5386:18 12951:37 12953:18 
0.6141732494399947 0.6002499699235732 0.6163767234823427 0.748382791713935 91:25 105:51 113:25 121:76 143:51 164:25 186:25 192:25 285:51 306:25 380:25 443:25 599:25 655:25 820:25 886:25 1054:25 1064:51 1143:25 1534:25 1661:25 2427:25 3192:25 4036:51 4177:25 6467:51 6908:25 7616:25 7974:25 10166:25 12712:25 
0.3856535928078013 0.4171683427985886 0.4578253575590797 0.5180264513211573 2:57 7:28 105:57 107:28 127:28 145:28 161:28 168:28 236:28 251:28 266:28 272:28 310:28 314:28 449:28 957:28 1079:57 1264:28 1445:28 1532:28 1574:28 2036:28 2920:28 3988:28 4133:28 6478:142 7788:28 7993:28 
0.07876731608568122 0.01273702034491288 0 0.006549165125964746 2:47 40:15 105:31 109:31 110:31 111:95 113:15 127:15 136:31 138:15 151:63 154:15 188:31 229:15 306:15 463:15 499:15 504:31 624:47 666:15 687:31 712:15 726:15 787:15 793:15 908:15 1063:15 1066:31 1106:15 1141:15 1596:15 2326:15 2417:15 2440:15 2831:15 2854:15 2898:15 2949:15 3158:15 3465:15 4443:15 5355:15 5625:15 
0.3210310021363923 0.280691211152911 0.1972382912751082 0.2088106789345871 2:81 105:81 599:81 660:27 908:27 1567:81 1930:27 2278:27 2312:27 4147:54 4395:27 4760:27 6583:27 6602:27 7887:27 8777:27 8865:54 9736:27 10853:27 11050:54 11054:27 11092:27 11324:27 11327:27 12766:27 12980:27 
0.8837924629214032 0.9261648975171953 0.8703008667835263 0.9902437679231287 2:111 105:111 109:55 110:55 151:222 504:55 701:55 1465:111 2457:55 2898:55 11717:111 
0.7653626118927793 0.8239965609127322 0.7584129558565661 0.8802999639932257 64:150 105:100 136:50 143:100 333:50 1280:50 1300:50 1305:50 1321:50 1339:50 1359:50 1373:50 1375:50 4022:50 7077:50 7112:50 
0.7756102296504037 0.8097767024856947 0.7707829424488035 0.8765563488346956 2:133 66:66 105:133 293:66 302:133 462:66 506:133 1103:133 1421:133 
0.5574625313123943 0.5663977402062181 0.5421294704207906 0.613103666390412 2:217 6:43 105:130 171:86 655:43 660:130 757:43 939:43 1745:43 2843:43 2854:43 2894:43 4147:43 4705:43 
1 1 0.6934166589281253 0.9829150201063844 23:17 24:8 64:8 105:26 183:17 211:8 335:8 359:8 388:8 389:17 437:17 451:8 477:8 549:17 557:8 599:8 753:17 802:34 828:43 839:8 952:8 1066:8 1086:26 1169:8 1184:17 1308:78 1404:8 1466:8 1481:8 1482:8 1502:8 1517:17 1565:8 1713:8 1727:17 1778:8 1800:26 1852:8 2296:26 2312:52 2830:8 2894:8 2963:8 3392:43 3987:8 4995:8 6292:8 6334:8 8517:26 8532:8 8542:8 8577:43 8578:8 8687:8 8994:17 9140:8 10318:8 11497:8 13034:43 13035:34 
0.6216487578426214 0.6990988347855676 0.6131002041028583 0.7438457986811662 105:120 143:120 678:40 729:40 1271:80 1295:40 1305:40 1306:80 1351:40 1377:40 2244:40 2246:40 3404:40 6415:40 6416:40 6869:40 10641:80 13065:40 
0.4615570331018112 0.5363684665332188 0.5108167964835668 0.8870515849289891 15:85 29:42 105:42 143:42 183:21 192:21 225:21 229:21 233:21 269:63 272:63 282:42 285:42 351:21 365:21 366:21 377:21 601:21 626:42 690:21 745:21 751:21 783:21 819:21 828:21 841:21 1179:21 1193:21 1509:21 1743:42 1849:21 3075:21 3630:21 
0.7306409000881198 0.7530342993232786 0.6528345525869952 0.6375295142381299 14:22 105:45 115:22 133:45 143:45 154:22 218:22 285:22 296:45 387:22 393:45 466:22 495:22 572:22 622:22 659:22 692:22 734:68 794:22 828:22 939:22 1060:22 1089:22 1571:22 1611:22 2045:22 2210:22 2238:22 2389:22 2840:22 2866:22 2957:22 3033:22 4082:22 4766:22 5557:22 5648:22 
0.9443223182333473 0.9841372495529926 0.9281831559582877 1 105:222 143:222 1273:111 1320:111 3404:111 6869:111 13091:111 
0.4743354901043736 0.4578953196181922 0.4188405689693989 0.4782588654442378 2:95 105:95 111:47 247:47 260:95 316:47 403:47 446:47 485:47 506:95 612:47 2227:47 2935:47 3570:142 4784:47 
0.6810122676513096 0.7155768963152201 0.6897390571660761 0.7720520521117626 2:130 31:43 105:86 110:43 164:43 577:43 599:43 1164:43 2896:43 3591:86 4147:130 7017:43 7169:130 11755:86 
0.6199337479184222 0.5548484639107837 0.4712015081193209 0.4807774285598146 105:51 141:12 143:116 333:25 744:12 1271:64 1279:25 1283:12 1293:64 1304:12 1309:12 1312:12 1322:12 1325:25 1332:12 1335:12 1340:12 1341:25 1342:12 1351:12 1359:12 1368:12 1370:25 1373:25 1375:12 1387:12 1389:25 2246:38 2248:12 2530:51 2899:12 4027:25 4029:12 5290:12 5300:12 5305:12 6894:12 6903:12 7361:12 8085:12 10479:25 11621:25 13091:12 
0.9143379551698596 0.9494497824887514 0.8982653568496757 1 2:200 54:200 105:200 506:200 3672:200 
0.5873268867844111 0.6514763737398299 0.581840702958075 0.6864235938837155 2:95 105:95 111:47 187:47 263:47 313:47 504:95 687:47 712:47 867:142 1106:95 1745:47 2413:47 2440:47 2903:47 
0.02934721203614246 0.2758130989265414 0.114766225173688 0.05643280457155135 2:31 7:15 10:15 12:15 16:15 17:15 64:15 70:15 95:15 105:46 159:15 209:15 236:15 246:31 293:15 315:15 321:15 323:15 361:15 364:15 365:31 400:15 402:109 405:15 428:15 442:15 449:15 525:15 584:31 592:15 596:15 605:15 827:15 937:15 955:15 1089:15 1113:31 1121:15 1139:15 1200:15 1221:15 1405:15 1884:15 2057:15 2862:15 3329:15 3374:15 3380:15 5064:15 13137:15 13140:15 
0.6183516587728946 0 0 0 2:17 34:8 40:25 69:8 105:17 108:17 109:34 110:34 111:8 116:8 127:17 128:17 132:8 134:8 135:8 136:8 153:8 157:8 181:17 188:8 247:8 278:8 289:8 306:34 313:25 331:8 383:34 385:8 388:8 393:8 402:8 448:8 449:17 460:8 463:8 464:8 465:8 474:8 481:8 495:8 529:25 656:8 657:8 659:8 660:8 665:8 667:25 683:8 687:8 688:17 691:8 713:17 757:8 792:8 941:8 1079:8 1141:8 1226:8 1528:8 2057:8 2183:8 2195:8 2209:8 2353:8 2400:25 2413:8 2426:8 2453:8 2458:8 2846:8 2856:8 2857:8 2886:8 3129:8 3133:8 3244:8 3331:25 3414:8 4869:8 6964:8 6970:8 8139:8 13142:8 
0.3323709898871084 0.319548547775282 0.3091644910416358 0.3805121710914594 2:153 29:19 34:19 40:38 67:19 105:96 108:19 115:19 138:19 247:19 252:19 386:38 388:19 393:19 434:38 448:19 474:19 481:19 687:19 688:19 828:19 941:19 1415:173 1558:19 1769:19 2004:19 2207:19 2854:38 5388:19 
0.1232102257130955 0.07518003733071781 0.1182089005646675 0.1298872462227985 2:166 7:33 105:66 122:33 242:66 252:33 313:66 395:33 503:66 664:33 1182:66 1195:33 1539:33 1826:33 1995:66 2886:33 3195:33 3508:33 3643:33 10606:33 
0.8675155955462184 0.9068230983769152 0.8523912201445687 0.9737530236682028 2:62 105:93 266:62 285:31 313:62 506:125 569:31 802:31 1166:31 2405:31 2409:31 7526:31 12947:62 13166:250 13168:62 
0.4855833336578474 0.5482715641122183 0.509913714725448 0.5811764516816649 2:50 105:100 110:50 112:50 115:50 156:50 162:50 336:100 496:50 669:50 694:50 844:50 1255:50 1415:50 2049:50 2293:50 7496:50 8089:50 
0.8460309468454739 0.8711964906567812 0.7441986700760352 0.9062666074876603 105:125 451:41 557:41 642:41 802:125 824:41 908:41 1143:41 1308:125 2296:41 2388:41 3000:125 3036:41 5298:41 11050:41 13189:41 
0.4577704686908852 0.5148780874647235 0.4800316156582209 0.546890512395641 2:111 105:111 282:55 298:111 494:55 504:55 506:111 651:55 729:55 2637:55 2830:55 3358:55 13205:111 
0.24554322197839 0.2780533708146291 0.2672602192562368 0.2901410366583622 2:142 29:47 105:190 112:95 145:47 183:47 233:47 330:47 443:47 504:47 1173:47 1534:47 2209:47 2238:47 2899:47 
0 0.4066394594465777 0 0 2:75 31:25 41:25 50:25 105:75 128:25 192:50 285:25 336:25 377:25 402:25 442:50 510:25 597:25 627:25 693:25 764:25 828:50 1185:25 1263:25 1402:25 1631:25 2070:25 2450:25 3591:25 4343:25 5918:25 6019:50 7404:25 12172:25 13211:25 13217:25 
0.5436452273660115 1 1 0.4416587699231724 2:24 30:49 66:8 67:8 105:24 108:8 115:8 116:8 145:8 175:24 177:8 178:33 368:8 369:8 370:41 438:24 445:8 514:33 571:8 572:8 593:16 629:8 631:24 678:8 726:16 810:8 824:8 830:8 867:8 869:8 953:8 1060:8 1072:66 1095:24 1114:8 1123:8 1185:8 1397:24 1404:16 1534:8 1543:24 1560:8 1580:8 1962:8 2225:8 2270:8 2389:8 2649:8 2827:8 2880:8 3360:8 3378:16 3876:16 4182:8 4316:16 4325:33 4497:8 4898:8 5117:8 5400:8 5525:16 5903:8 5970:8 6429:16 6911:8 6978:8 7077:24 7629:8 8838:8 13226:8 
0.416437073699894 0.4495949939654046 0.4250767777408306 0.4914075626308667 2:125 105:187 192:62 199:62 204:62 285:62 296:62 584:62 769:62 814:62 1195:62 1864:62 1996:62 
0.2126181243643337 0.2019974196369682 0.1778812906080978 0.2281071933359713 2:93 105:93 111:31 247:31 506:93 729:31 984:31 1000:93 1066:31 1567:31 1596:31 2456:31 2898:31 3286:125 3919:31 4111:31 4551:31 13232:62 13234:31 13242:31 
0.2393339286612423 0.1930513646911767 0.2675709729643718 0.5556821328602126 2:8 6:12 10:4 11:24 12:12 14:4 15:28 16:16 27:4 31:4 40:12 48:4 86:4 105:8 111:4 118:4 122:4 141:8 145:12 151:12 156:8 161:4 176:8 183:4 186:4 189:4 191:4 192:4 211:4 246:4 249:12 282:4 285:16 293:4 298:8 306:8 313:4 315:4 322:20 323:12 324:24 328:4 329:4 331:8 332:12 334:4 335:8 354:28 355:12 360:8 362:8 364:20 366:4 374:4 402:4 403:20 405:4 407:4 409:4 410:8 414:12 440:4 455:4 456:12 462:4 477:4 491:4 503:4 564:8 574:4 577:4 596:4 622:4 624:4 757:4 810:4 819:4 826:12 842:12 846:8 852:4 855:8 878:4 880:4 897:4 973:4 1038:16 1053:12 1056:12 1091:4 1127:4 1140:8 1143:4 1167:4 1235:4 1256:12 1268:4 1485:4 1511:8 1590:4 1592:4 1747:4 1955:4 2015:4 2183:4 2188:8 2195:4 2260:4 2465:4 2880:4 2932:4 2933:4 2957:4 3170:4 3215:8 3257:4 3391:4 3531:4 3557:8 3610:8 3614:4 3617:4 4041:4 4341:4 4785:4 5386:8 5407:28 6243:4 6445:4 7425:4 7530:4 9409:4 11778:8 13255:4 13260:28 13266:4 13267:4 13274:4 13275:4 
0.04788194498631712 0 0 0.05734137351300907 2:64 6:32 29:32 105:64 111:32 112:32 157:32 245:64 247:32 248:32 306:64 330:32 331:32 385:32 495:64 691:32 751:32 1085:32 1253:32 1528:32 1702:32 1837:32 3300:32 3569:32 3570:32 13285:32 
0.4189165500802455 0.4267493338036338 0.4341212343572909 0.4933118747809313 2:156 25:31 30:31 91:31 263:31 285:62 350:31 504:31 561:31 631:31 728:31 929:31 964:31 1066:62 1536:62 2432:31 2830:31 3302:31 5064:62 7169:93 7585:31 10511:31 
0.9695899367916339 0.8591425218146782 1 1 6:18 16:37 91:18 107:18 112:18 123:18 127:56 141:18 157:37 211:18 233:37 306:37 331:18 332:75 348:18 384:18 466:18 497:18 685:18 691:18 726:18 877:18 1038:18 1054:37 1195:18 1266:37 1405:18 1483:18 1543:18 1551:18 1995:56 2070:18 2346:18 2838:18 3033:18 3192:18 3301:18 4343:37 10165:18 
0.671629094315074 1 0.6759448315956541 0.7552531651218698 91:60 105:181 136:30 145:30 296:30 381:30 441:60 442:121 494:30 651:30 769:30 836:30 1072:90 2866:30 4341:30 13148:90 13166:60 13197:30 
0.8789220341567949 0.9156798789209534 0.8655435643110955 0.9835534512120716 2:157 26:210 105:157 253:52 285:52 438:52 2070:52 2389:52 6978:52 13299:157 
0.103715548081978 0.1901422763796698 0.175519425568823 0.1985133525990694 2:68 29:34 40:34 54:103 105:103 107:34 111:34 112:34 188:34 330:34 331:68 434:34 506:103 1106:34 1247:34 1534:34 2450:34 3133:34 3291:103 
0.7738088257482163 0.812503946916583 0.763253533237772 0.870569773987015 2:157 54:52 105:210 109:52 111:52 260:52 313:52 383:52 673:52 2424:52 5222:210 
0.1472167610918696 0.1221759617274786 0.1203615006288455 0.1197466196742947 2:105 14:52 31:52 105:157 172:52 247:52 331:52 385:52 441:52 506:105 515:52 516:52 3283:52 3508:52 7559:52 
0.3155931411719576 0.3034286959070946 0.3399318082070342 0.3551289840493382 2:88 64:29 105:58 211:29 385:29 400:29 401:29 494:29 523:29 593:29 599:58 784:29 821:29 941:29 1484:29 1624:29 1745:29 1867:29 1908:117 3431:29 3775:29 4349:29 4512:29 5117:58 8158:29 13316:29 
0.7695341577159088 0.8414445165785639 0.7565165404334441 0.8594215549531863 2:125 54:125 91:125 105:187 442:125 506:125 13148:62 13285:125 
0.9465919344942524 0.9832320799777883 0.9285367475692855 1 2:153 105:153 306:307 827:76 835:76 1878:76 2032:76 2339:76 
0.8773115369022289 0.9102934086178424 0.8610244030710436 0.9802999287861636 2:250 105:250 651:125 729:125 951:125 2866:125 
0.4336257704612168 0.4634675527934774 0.4471466109016018 0.5158166148718174 2:90 6:45 54:45 105:90 142:45 151:45 272:45 446:45 506:136 898:45 1032:45 2340:45 3650:45 4926:136 7511:45 13356:45 
0.8640971853485337 0.90447870618982 0.8528950275600155 0.9725440113133972 105:200 107:66 202:66 285:66 383:66 443:66 502:66 506:266 3286:133 
0.8942290647140085 0.9228325744345288 0.9270411582171336 1 7:7 14:7 26:7 53:14 70:14 105:29 107:7 108:14 129:7 138:7 164:14 166:14 266:7 269:7 272:7 278:7 281:7 285:14 302:14 331:7 332:7 336:7 388:7 472:14 479:7 495:7 498:7 501:7 541:7 561:7 575:7 599:7 690:14 714:14 758:7 784:7 802:14 828:14 848:7 908:7 913:7 939:7 1137:14 1139:7 1166:7 1174:7 1191:7 1247:7 1308:14 1477:14 1558:7 1565:7 1727:7 1753:14 1800:22 2021:7 2312:7 2844:7 2894:7 2996:7 3000:66 3036:7 3167:29 3225:7 3240:7 3357:14 3955:14 4009:14 4013:7 5139:7 5638:14 5903:7 6145:7 6405:7 7647:7 8084:7 8373:7 8676:7 8817:22 9950:7 11038:7 12845:7 13384:73 13386:7 13406:14 13407:14 13423:7 
0.8125275460990741 0.7262517555955652 0.7266136676672268 0.8216683011973153 127:58 306:58 313:117 383:117 435:58 599:117 651:58 681:58 687:58 713:58 1867:58 3133:58 3233:58 4343:58 
0.4142036066435125 0.5025762886359298 0.4322110663971515 0.4971794140581482 2:58 54:78 105:98 249:78 253:19 285:19 306:39 370:19 441:58 506:117 769:39 810:19 1072:19 1127:19 3414:19 3569:117 13076:78 13077:78 13147:19 
0.841154643923968 0.8733209956425587 0.8217737477948406 0.9379380860245692 2:191 7:14 105:29 111:88 132:14 247:14 260:191 272:14 282:29 285:14 383:14 441:29 501:14 580:14 669:14 861:14 1168:176 1179:14 1444:14 1611:14 2903:44 13267:14 13457:14 
0.1117150015548604 0.02800589821086572 0.1294410821375214 0.3587754539656845 2:36 11:36 15:36 16:36 52:36 83:18 85:36 137:18 151:18 161:18 176:18 204:18 246:18 266:18 285:36 306:54 315:18 343:18 360:18 365:18 382:18 403:18 407:18 410:18 449:18 474:18 503:18 669:18 702:18 719:18 757:72 852:18 932:18 945:18 1104:18 1113:18 1234:18 1242:18 1415:18 1657:18 1671:18 2938:18 5174:18 
1 0.4241102318112264 0.194697693731617 0.2260443210488582 2:17 7:8 36:8 41:8 54:34 69:17 74:8 90:17 92:8 94:8 105:17 107:17 108:8 117:8 118:8 127:8 145:25 178:8 209:17 247:17 252:43 260:8 263:17 269:8 278:8 316:8 337:8 338:8 351:8 377:8 385:17 402:8 433:8 439:8 440:8 449:8 460:8 483:8 489:17 506:17 511:8 515:8 631:8 673:8 681:8 690:8 699:8 738:8 757:8 774:8 776:8 849:8 896:8 963:8 1027:8 1116:8 1117:8 1131:8 1141:8 1159:8 1182:8 1265:8 1461:8 1842:8 1884:8 2353:8 2356:8 2850:8 2856:8 2912:8 2913:8 2927:8 3165:8 3287:8 3292:43 3293:43 3447:8 3559:8 3861:8 4367:8 4381:8 4503:8 4724:8 4781:8 4783:8 6143:8 9447:8 13469:8 
0.3840031351179427 0.4392404930836759 0.3809349230198048 0.4623860225402249 2:54 9:27 10:54 30:27 54:81 105:54 145:27 266:54 489:27 506:81 649:108 655:27 747:54 844:81 1103:27 1169:27 1421:27 2223:27 6142:27 10624:54 11607:54 
0.685174921638115 0.607270165702205 0.5790615151336085 0.7625867239804301 1:22 2:22 15:22 40:22 64:11 69:22 85:11 91:11 105:22 108:22 112:11 120:11 127:11 128:11 162:22 196:11 252:34 285:34 298:34 319:11 329:22 331:11 339:11 385:11 466:22 474:11 482:22 504:11 510:11 599:22 600:22 601:11 658:11 673:22 678:11 722:11 725:11 867:22 931:11 937:11 1066:11 1114:11 1123:11 1139:11 1191:11 1268:22 1405:11 1415:11 1433:11 1558:11 1656:11 2207:11 2853:11 2950:11 3640:11 3807:22 3915:11 3972:11 4091:11 4655:11 5388:22 6143:11 7688:11 
0.2059871109341697 0.137247306033256 0.1405225616098808 0.1618469767151944 2:90 69:30 105:60 107:30 108:30 112:30 127:30 313:30 339:30 383:121 386:90 427:30 434:30 448:30 660:30 678:30 683:30 691:30 694:30 1044:30 1865:30 4781:30 10165:60 13476:30 
0.4539458445034738 0.4850046652184745 0.6057749950299048 0.570564170598549 12:59 14:11 15:11 16:11 18:11 70:11 90:23 105:35 111:11 143:47 145:11 151:11 156:11 161:11 164:11 171:11 189:11 192:11 209:23 236:11 298:11 349:23 360:11 405:11 425:11 449:11 484:35 528:11 555:23 563:11 574:11 598:11 682:11 751:11 893:11 932:23 1038:11 1089:11 1123:11 1133:11 1182:11 1224:11 1415:35 1536:11 1849:11 2850:23 3454:11 3478:11 3525:23 3972:11 4838:23 5354:11 5939:47 10242:11 12371:11 12725:11 13242:11 13478:23 13483:11 
0.9663203359318454 1 0.9484037306754881 1 2:285 105:285 1258:285 1908:142 
0.8007798347260227 0.8339721969052541 0.7881865333764001 0.8977363655105945 2:153 105:230 495:76 506:76 1085:153 1103:153 1534:76 3569:76 
0.9779129291946134 1 0.9602802131327214 1 105:400 1086:600 
0 0 0 0.1616193235102482 2:6 7:6 10:23 11:20 12:3 14:3 15:10 16:10 17:16 25:3 34:10 41:3 49:13 52:3 62:3 63:3 67:3 69:3 70:3 83:3 86:3 95:6 105:10 108:3 111:6 115:3 120:3 127:6 136:6 145:13 151:3 159:3 161:3 168:33 175:3 176:3 188:3 189:10 191:3 192:13 199:3 200:3 209:3 211:6 221:6 235:6 260:6 264:3 285:10 296:3 306:23 317:13 318:6 321:6 322:3 323:30 324:6 326:3 327:10 329:10 332:6 335:3 336:3 351:3 354:3 356:3 360:3 364:3 366:3 376:3 377:6 379:3 386:3 391:6 400:16 402:23 403:6 407:3 423:3 440:3 455:10 503:6 506:3 523:3 540:3 555:10 561:6 563:3 566:3 584:3 585:3 596:3 664:3 669:3 680:3 687:3 691:3 702:3 734:3 757:3 762:3 764:3 765:13 787:3 818:3 823:3 843:3 844:3 852:3 877:6 882:3 897:3 941:3 957:3 1025:3 1036:6 1038:3 1050:3 1054:3 1057:6 1113:6 1121:3 1133:6 1134:3 1135:3 1140:6 1169:3 1182:6 1191:3 1193:6 1195:3 1224:3 1242:3 1255:3 1460:3 1485:3 1552:3 1576:3 1588:3 1591:3 1597:6 1619:3 1675:3 1689:6 1726:6 1747:6 1848:3 2382:3 2388:3 2416:3 2862:10 2996:3 3195:3 3204:3 3302:3 3391:3 3531:3 3532:3 3580:3 3618:3 3782:3 3914:3 3963:3 3970:3 4034:3 4402:3 4467:3 6166:3 7080:3 7404:3 7814:3 8814:3 13088:3 13094:3 13140:3 13196:3 13266:3 13274:3 13443:3 13509:3 
0.03545034090309575 0.01861688992028582 0 0 2:41 30:20 31:41 40:20 105:41 107:20 116:20 127:41 141:20 177:20 178:20 247:20 285:20 306:104 382:20 385:20 402:20 441:20 442:20 463:20 481:20 506:41 571:20 591:20 656:20 676:20 726:20 934:41 936:20 1259:20 1870:41 2209:20 2458:20 4665:20 6149:20 11607:41 
1 0.8487757186554513 0.7269721291456311 1 12:5 14:5 26:5 54:40 62:5 74:5 95:11 100:5 105:11 107:23 115:11 116:5 137:5 141:11 145:5 160:5 161:11 162:5 164:5 165:5 176:5 187:11 209:11 211:5 233:5 236:5 245:11 252:11 266:5 281:5 282:5 296:5 298:5 306:5 312:11 314:5 316:23 322:5 331:5 338:11 345:5 349:5 351:17 371:5 393:17 423:5 439:17 446:28 449:5 481:5 495:5 506:11 510:5 549:5 555:11 572:5 578:5 585:5 588:11 591:5 601:5 605:5 622:11 688:5 690:11 691:5 707:5 738:5 771:5 810:5 818:5 843:5 849:5 896:17 934:5 945:5 947:5 965:5 1057:5 1085:5 1103:5 1131:5 1142:5 1210:5 1405:5 1414:5 1421:5 1446:5 1470:5 1496:11 1542:5 1568:5 1580:5 1602:5 1611:11 1796:17 1848:5 1891:5 2181:5 2361:5 2869:17 3550:5 3893:5 4449:5 4783:5 4784:5 4932:5 5020:5 7282:5 13157:5 13304:46 13483:5 13517:46 
0.4562688741913641 0.4703464732855866 0.4616662238076179 0.5392124706649019 2:115 105:115 145:38 188:38 306:38 498:38 506:115 631:38 862:153 2637:38 3569:115 3570:38 3650:38 6241:38 13517:38 
0.3422982780957775 0.4106548818427147 0.3554383190161041 0.43419922983941 2:88 30:29 53:29 54:88 105:117 153:29 285:29 343:29 345:29 385:29 423:29 481:29 526:29 573:29 605:29 751:29 1253:29 2046:29 3291:117 6142:117 13094:29 
0.5572202098649572 0.5945471542008941 0.5564172763367062 0.6481913407018517 0:74 1:74 2:74 104:74 105:74 111:74 136:37 260:74 313:37 383:37 402:37 673:37 711:185 712:37 713:37 714:37 
0.976533095898706 1 0.9597861236824918 1 2:142 105:142 383:71 1415:285 5204:357 
0.8209902321071811 0.852694782258424 0.8054636612022714 0.9179470788269647 2:200 105:300 502:100 506:300 6142:100 
0.03295194060736975 0.05679718204380418 0.05861544566144086 0.05686950741160859 2:62 37:31 57:31 105:93 209:31 330:31 354:31 402:93 407:31 410:31 433:31 566:31 852:62 889:31 896:31 897:31 933:31 962:31 1056:31 1174:31 1182:31 1624:62 3256:31 13543:31 13544:31 
0.7366229280913587 0.7663632641109862 0.7287958292936895 0.8308039021569404 2:166 105:166 245:166 506:166 729:83 951:83 1527:83 3358:83 
0.3826416460078373 0.5010063472107161 0.4144431457108353 0.4637038734590153 40:45 90:22 105:113 108:22 136:22 143:45 145:22 305:22 449:22 484:45 599:22 676:22 1065:22 1089:22 1166:68 1240:68 1461:45 2069:22 2455:22 2920:68 3475:45 3478:22 4168:22 4169:22 4445:22 4831:22 12815:22 13545:45 
1 0.4289364920812319 0.732077626185048 0.04740462060003942 2:7 7:3 12:11 14:7 34:43 53:3 54:31 66:3 69:3 70:3 95:3 105:7 111:3 116:3 128:3 140:3 145:7 154:3 182:3 196:3 209:7 211:3 215:7 233:3 252:3 255:3 256:7 266:3 280:7 284:7 290:3 296:7 306:15 313:3 314:7 316:11 331:19 339:7 383:3 388:3 391:3 394:3 401:7 402:3 403:7 410:11 428:3 437:3 439:19 440:7 446:7 447:3 449:39 460:3 466:19 470:3 474:7 477:3 478:3 481:15 487:3 506:15 507:3 510:3 525:3 572:7 597:3 599:7 647:7 648:3 649:3 664:3 667:3 669:7 680:3 685:3 702:7 707:3 775:3 787:7 792:3 794:3 810:7 829:3 839:3 896:3 934:19 1091:3 1116:7 1117:7 1173:3 1174:3 1178:3 1196:3 1258:3 1267:3 1551:3 1567:3 1602:3 1713:3 1763:3 1848:7 1859:3 1863:3 1874:19 1996:7 2012:7 2043:3 2045:3 2046:3 2209:7 2227:3 2228:3 2431:11 2438:3 2446:7 2855:3 2912:3 2960:3 3072:3 3508:7 3548:3 3550:3 3565:7 3598:3 3650:27 3796:7 3846:3 3965:3 3990:3 4033:3 4110:3 4433:3 4459:3 4705:3 5035:3 5055:3 5199:7 5356:3 5613:3 5976:3 5977:3 8379:3 8713:3 8851:3 9700:3 10747:3 13496:7 
0.3308441621762803 0.2116536156307383 0.3924188765621172 0.2597445422564682 2:75 29:25 105:50 115:25 135:25 157:50 170:50 233:25 247:25 260:125 306:50 313:25 333:25 336:25 382:25 427:25 443:25 572:25 599:50 691:25 750:25 935:25 1534:25 2209:50 3223:50 4106:25 11358:25 
0.8026195382033475 0.8358546900573741 0.8346593264088007 0.8658329477035991 2:48 89:48 117:24 278:24 453:24 470:24 510:24 687:48 699:24 773:24 790:48 1089:73 1191:73 1415:48 1568:24 1908:48 2015:24 2181:24 2412:24 2933:24 3285:24 3847:24 3914:24 4332:24 4358:24 5169:24 7818:48 8068:24 13566:48 
0.895199174715925 0.932728174320782 0.8803825705204638 1 2:200 26:100 105:200 113:100 179:200 510:100 9572:100 
0.4496963923829616 0.4695032824978569 0.4297116717819706 0.5204374123042326 0:117 1:117 2:88 34:29 105:147 109:58 138:29 222:147 245:58 246:29 247:29 248:29 249:29 250:29 251:29 252:29 
0.9290079553138331 0.9637477883201438 0.9145175701541111 1 2:117 371:58 616:58 617:58 1469:58 1543:58 2432:235 2480:58 3643:117 3775:58 4877:58 5959:58 
0.9018423736825696 0.9365604435894622 0.8860251402907213 1 2:250 105:166 1001:83 2860:83 7500:83 13131:166 13576:166 
0.8002816167894274 0.5685910170409394 0.6428720422568034 0.7326886981718074 2:31 7:93 40:62 48:31 108:31 110:31 137:31 160:31 306:62 313:31 337:31 383:31 434:31 448:31 474:31 498:31 647:93 690:31 694:31 726:31 1182:31 1661:31 1856:31 3129:31 3839:31 9596:31 
0.08023035997950884 0.1374168333935085 0.07261400426643776 0.1175645549981458 2:57 6:28 48:28 54:28 105:57 141:28 168:28 211:28 249:28 256:28 306:28 312:28 313:28 402:57 481:57 776:28 862:57 896:28 924:28 1085:85 3569:57 4493:28 4784:28 6044:57 13074:28 13077:28 
0.8733404200083756 0.7489990807597847 0.7337445354420173 0.8383300005310924 2:13 66:13 105:13 110:13 111:27 115:13 133:13 136:27 164:27 182:13 225:13 243:13 278:13 298:13 313:82 345:13 382:13 393:13 402:27 500:13 507:13 579:13 599:13 678:27 687:82 750:13 867:13 934:13 1141:41 1178:13 1253:13 1397:27 2225:41 2273:13 2413:13 2429:27 2450:13 2862:13 3301:13 3393:54 3591:13 3914:13 4059:27 4067:13 4103:13 4679:13 13617:27 
0 0 0.02141420433774849 0.03468644543501686 2:25 14:12 29:12 31:12 48:12 49:12 54:12 69:12 91:12 105:77 108:12 112:12 127:12 138:38 145:12 154:12 253:12 267:12 280:12 284:12 306:38 322:12 330:12 371:25 386:12 441:12 446:12 481:12 492:12 495:12 506:51 572:12 631:12 649:12 655:12 673:12 678:12 691:12 695:25 835:12 867:12 1265:12 1688:12 2209:12 2455:12 3421:12 3646:12 4088:12 4784:12 5500:38 11607:129 
0.1617371027810708 0.1791246169612427 0.1291956493144782 0.1537074315961669 2:117 105:88 108:29 111:29 145:29 252:29 280:29 285:29 313:147 601:29 784:29 791:29 1182:29 1870:29 2389:29 2432:88 2639:29 2869:29 3643:58 3775:29 7374:29 9294:29 
0.796758208753792 0.8499407531000248 0.7974713376339793 0.9402631846450913 105:136 107:45 192:45 253:45 306:45 401:45 734:45 936:136 2034:45 3114:136 3591:45 4665:45 4783:45 6241:45 6859:45 7483:45 
0.09009326852066479 0.4027476655108623 0.1494335970914242 0.08638831573906779 2:16 10:5 11:5 12:5 14:11 30:11 34:11 40:16 67:5 95:5 105:33 107:5 121:5 145:5 154:5 155:5 158:5 160:5 164:5 204:5 236:11 253:5 266:11 278:11 280:5 282:5 290:5 293:5 313:5 329:5 331:5 337:5 370:33 381:5 429:5 441:5 442:11 446:39 449:16 458:11 463:11 491:5 494:5 503:5 504:11 505:11 506:28 528:16 599:5 647:5 651:5 655:5 659:5 713:11 769:5 781:11 862:22 896:5 951:28 1091:5 1115:5 1168:5 1173:5 1182:39 1195:5 1200:5 1454:5 1509:5 1527:5 1610:5 1611:5 1745:11 1870:11 1876:5 1884:5 2045:5 2047:5 2298:5 2886:5 3521:5 3569:22 3597:5 3612:39 3853:5 3897:5 4341:5 4785:5 4939:5 5059:5 5563:5 6143:16 7010:5 7680:5 8087:50 8379:5 11013:11 13539:5 13630:28 
0.7190321443210274 0.7866395739194475 0.7416804952217252 0.8433229094501272 2:74 69:37 104:37 105:111 313:37 401:37 481:37 485:37 506:74 937:37 1193:74 3292:148 3293:185 3650:37 12846:37 
0.2175591111124629 0.2496348998132439 0.2315793364234803 0.2624558658988836 2:157 105:157 132:52 351:52 746:52 828:52 2283:52 2291:52 2293:52 3548:52 6317:52 6554:52 6587:52 7880:52 10149:52 
0.3133595052601619 0.3206638401394722 0.3006494055537492 0.3477997686505461 2:107 34:35 105:107 109:35 111:107 121:35 147:35 306:35 451:35 506:107 683:35 694:35 2209:71 5020:35 10338:71 12080:107 
0.5065568957988241 0.5240688592605413 0.5074261770603412 0.5846519135650423 2:125 14:62 105:125 136:62 306:62 383:62 516:62 572:62 1527:62 2209:62 3033:62 3666:125 4110:62 
0.1573086730879423 0.334943393585232 0.1391073456834959 0.1241872785325208 2:90 105:90 111:90 245:45 293:45 442:45 479:45 481:45 495:45 506:90 705:45 760:45 1182:45 1585:45 1745:45 2840:45 3569:90 
0 0 0 0.03039944934839772 2:25 6:25 9:12 10:25 11:64 15:38 16:12 17:38 19:12 23:25 25:25 26:12 27:12 58:12 83:38 95:12 103:12 105:38 183:12 191:12 192:12 204:12 269:12 322:51 360:12 380:12 402:12 405:12 407:12 416:12 564:25 733:12 745:12 826:12 877:25 902:12 949:12 952:12 964:12 1041:12 1458:12 1624:12 1636:12 1671:12 1689:12 2185:12 2424:12 3345:12 3824:12 4297:12 5446:12 6361:25 6977:12 13111:12 
0.1495973884794947 0.207684160914362 0.2018509943881352 0.2231132158411744 2:96 104:32 105:96 245:96 260:32 306:32 313:32 383:129 485:64 501:32 506:96 794:32 898:32 2293:32 3561:32 13081:32 13194:64 13677:32 
0.2744584746627247 0.4664877805143702 0.3191195629784197 0.3734878161690078 2:83 26:41 105:83 561:41 624:41 713:41 729:41 1072:41 1299:41 1543:41 1783:41 2637:41 2880:41 3371:41 3963:83 4221:41 4268:41 5959:41 10587:83 13709:41 
0.777705439626395 0.8187721968736832 0.7735434261938995 0.8829912095628483 2:105 104:105 105:105 236:52 260:210 383:105 409:52 474:52 868:52 988:52 3561:52 13725:52 
0.4534047824737242 0.4915671693651593 0.4671745161252249 0.5343763819602972 2:130 40:43 105:173 370:43 493:43 495:43 506:130 687:43 1106:43 1596:43 2862:43 3286:173 5563:43 
0.4489630775948074 0.5192702340844724 0.4734469236159132 0.5420701562831406 2:111 69:55 105:166 136:55 138:55 313:55 383:55 386:111 466:55 504:55 687:55 1106:55 7532:111 
0.1331378656742734 0.1491597480079735 0.1884699175076395 0.204717106107221 2:105 11:52 26:52 27:52 30:52 67:52 105:105 173:52 377:52 402:52 503:52 721:52 1038:52 2305:52 3204:52 13196:52 13197:52 
0.1199032954324963 0.1613085828088828 0.1436101142968778 0.184322785239081 2:76 105:115 111:38 136:38 138:76 282:38 306:38 336:38 383:76 498:38 729:38 842:38 896:38 1243:38 1423:38 2453:38 2983:76 3238:38 5026:76 
0.4179612936255892 0.3005619431841591 0.1980029658332408 0.2356702353490773 2:50 31:50 40:50 54:75 99:25 105:50 108:25 109:25 133:25 138:25 236:50 245:25 247:25 313:50 377:25 383:100 466:25 506:50 599:25 679:50 687:25 713:25 2238:25 3672:100 
0.3737436391516755 0.4299377732610027 0.4110182819753256 0.4931000533313116 1:78 2:78 105:117 371:19 441:39 506:78 691:19 862:19 918:19 1000:19 3569:98 3570:176 7290:19 7574:19 9612:19 12947:19 13072:19 13079:19 13304:19 13517:78 13754:19 
0.6047181165155082 0.6504199064924494 0.6045946471647058 0.7176777819168023 2:86 12:43 19:43 105:86 180:43 252:43 386:43 503:43 688:86 863:43 1114:86 1483:86 1948:86 3643:86 13776:86 
0.3313414174611122 0.3380107643676105 0.3203898051747345 0.3618963472630563 1:94 2:150 105:207 115:18 123:37 209:18 506:94 2405:18 3569:94 3570:150 4365:18 6054:18 13496:18 13517:56 
0.0285515452250826 0.06528581516448921 0.04760706615731866 0.0573532567366572 2:156 54:31 91:31 105:156 110:31 246:31 370:31 441:31 713:31 829:31 1085:31 1702:31 1870:31 2183:31 2293:93 2388:31 5903:31 5959:31 13303:31 13677:93 
0.5401711835484864 0.5186389107063073 0.5401588143013735 0.6093515287425237 2:45 10:22 105:68 136:22 192:22 266:45 282:22 298:22 402:22 498:22 506:68 528:22 561:22 787:22 844:45 951:22 1168:22 1182:90 1184:90 1194:22 1870:90 13133:22 13303:113 13808:22 
0.4243449033826378 0.5914293454024093 0.3896484601139172 0.4923793506658247 2:57 91:28 105:85 145:28 256:28 276:85 371:85 442:28 479:85 502:57 505:28 506:57 713:28 802:28 861:28 2866:28 3566:28 3597:28 13166:57 13812:85 13816:28 
0.9064709261136974 0.9529814669682659 0.893222084413861 1 105:153 109:76 110:76 249:76 924:76 947:76 1543:153 4382:153 5112:76 6019:76 
0.9235321178025753 0.9039920850379967 0.8390286652803965 0.957896577917101 2:22 100:11 105:22 503:11 507:22 993:45 1570:22 1657:11 1742:11 1783:34 2830:11 2892:11 3802:11 4191:22 4202:45 4214:45 4218:11 4223:22 4237:45 4295:22 4518:11 4551:159 5223:11 5256:11 5850:11 5856:11 7082:22 7356:11 7706:34 7724:11 10154:11 12126:22 12316:34 13829:11 13832:22 13835:68 13836:68 
0.9692723573660399 0.9663993240627614 0.8939253550010875 1 278:52 290:52 557:105 846:52 1086:105 1123:52 1308:52 1800:105 2312:52 3225:52 3987:52 4774:52 8517:52 8994:52 9140:52 13873:52 
0.2406537740123613 0.2434151220979918 0.2931891504417841 0.3056645790702032 2:93 5:23 14:23 15:23 17:23 27:69 103:46 105:46 249:46 260:23 266:46 285:23 322:23 365:23 410:23 631:23 771:23 842:23 1591:93 1789:23 1831:23 1876:23 4140:46 4465:93 13111:46 13894:23 
0.1973808196225824 0.2426622008010171 0.2238654851641808 0.2529778138671592 2:115 54:115 105:115 109:38 110:76 111:38 116:38 138:38 186:38 285:38 498:38 504:38 506:76 924:38 3571:115 5959:38 
0.1607587401243998 0.278967763470634 0.2031030721449881 0.3809050257262904 2:30 7:15 40:45 49:15 54:75 105:30 140:15 145:15 245:60 282:45 285:15 312:15 338:15 385:15 407:15 440:15 471:15 506:30 552:15 738:15 934:15 947:15 965:15 1085:15 1087:15 1125:30 1234:15 1253:15 1588:15 1602:15 1969:15 2375:15 2392:15 3565:15 3569:15 3988:15 4404:15 4748:15 4783:15 5020:15 8085:15 11611:15 13496:106 13517:15 13533:15 
0.513687552210205 0.1228002736679655 0.07205804748888939 1 1:100 2:5 14:2 20:2 40:5 52:2 66:8 69:2 70:2 79:8 105:5 107:11 108:22 111:60 112:5 115:5 117:2 118:2 127:8 145:8 162:2 164:5 173:2 180:2 182:5 187:2 189:5 191:2 192:2 236:2 245:2 247:2 252:5 266:2 280:8 285:2 298:17 306:5 313:11 319:2 331:2 338:2 374:2 383:8 386:20 400:2 402:2 427:2 436:2 438:2 439:5 440:2 448:5 453:2 462:2 464:2 471:5 481:2 482:2 490:2 499:5 506:5 507:8 510:14 529:2 574:2 599:2 627:2 631:2 655:2 660:2 666:5 673:20 678:2 683:2 685:2 687:11 688:8 691:2 699:2 705:2 709:2 712:8 713:8 728:2 729:2 746:2 760:2 794:2 828:8 830:2 846:2 849:2 862:2 867:2 868:2 901:2 931:2 934:8 941:2 943:2 964:2 966:2 1066:2 1077:2 1103:2 1106:20 1159:2 1161:2 1178:2 1179:2 1263:2 1265:2 1415:2 1425:2 1480:5 1493:2 1548:2 1555:2 1602:2 1657:2 1769:5 1867:5 1954:2 1993:2 2191:8 2194:8 2228:2 2389:2 2393:8 2402:2 2410:2 2537:2 2639:2 2843:2 2844:2 2855:2 2857:5 2866:2 2894:2 2949:2 3033:8 3127:2 3133:2 3286:5 3305:2 3315:2 3349:2 3441:2 3447:2 3501:5 3565:2 3578:2 3583:2 3599:2 3779:2 3795:2 3827:2 3848:2 3857:25 3861:5 4083:2 4088:2 4343:5 4365:8 4424:5 4458:5 4459:2 4477:2 4521:2 4903:2 5018:5 5178:2 5394:2 5475:2 5662:2 6058:2 6243:5 7080:2 7817:2 8719:5 9609:2 
0.3924195062078876 0.4251293032869835 0.4518307290082065 0.5663834196707006 2:57 12:57 30:28 105:57 110:28 137:57 151:28 285:28 289:28 306:57 315:28 322:28 499:28 526:57 913:28 966:28 1060:85 1139:28 1182:28 1263:28 1615:28 2353:28 3462:28 9373:114 
0.7625893599814997 0.3427718791851026 0.2629478122581284 0.3434956238147429 2:21 14:7 24:14 31:7 34:14 54:7 69:28 105:14 107:7 108:14 110:7 112:7 115:7 122:7 127:7 136:7 145:14 162:7 182:7 245:28 248:14 252:21 280:7 282:7 293:28 298:7 313:21 383:21 388:7 392:7 395:14 402:7 427:7 435:7 438:7 462:14 463:7 466:14 470:7 494:7 500:14 504:21 506:14 651:7 678:14 688:7 821:7 862:7 868:7 869:7 964:14 1159:7 1167:7 1173:7 1181:28 1247:7 1265:7 1415:7 1427:7 1568:7 1573:7 2045:7 2830:14 2871:7 2900:21 2913:7 2996:7 3286:50 3358:21 3456:7 3457:7 3462:14 3474:7 3508:7 3566:7 3806:7 3902:7 4463:7 4655:21 5049:7 5628:7 6249:14 6368:7 7227:7 7305:7 12959:7 13933:14 
0.5317861852185124 0.5460662800164181 0.5258056236100707 0.5960126019412998 2:235 105:117 381:58 498:58 502:117 506:117 651:58 729:58 2830:58 6466:58 6484:58 
0.5599880206928163 0.5854720801929204 0.5598076088618966 0.6366806033712038 2:153 66:76 105:153 282:76 336:76 416:76 498:76 499:76 730:76 804:76 830:76 
0 0 0 0.01337344226455841 2:105 105:105 145:52 381:52 494:52 498:52 506:105 651:52 713:52 729:52 1165:52 2209:52 3570:52 3606:52 13072:52 13496:52 
0.9028487891363127 0.9382006454449973 0.8865345835482543 1 2:214 105:214 506:428 557:142 
0.8965098778169578 0.9324244040617581 0.8806807418647487 1 2:214 11:71 105:214 156:71 243:214 313:142 423:71 
0.6727917811242938 0.7115542535232482 0.666362294141002 0.7749331801352931 1:150 2:150 91:50 105:150 260:100 726:100 2424:50 3910:100 4513:100 13197:50 
0.9215111235663154 0.9574237819760593 0.9049019799843127 1 0:125 2:375 21:125 105:250 1771:125 
0.3796864964344301 0.3971748963579542 0.4049873643986927 0.443624247171895 2:95 105:95 110:47 122:47 204:47 245:95 506:95 984:47 1000:47 3569:47 5020:95 5527:47 6984:47 10587:47 13232:95 
0 0.1789783138726736 0 0 2:16 10:8 11:16 14:16 15:33 16:25 18:8 19:16 26:8 27:8 105:33 109:8 145:8 151:8 176:16 183:16 194:16 211:8 221:8 243:8 244:8 285:16 293:8 315:8 316:8 322:33 323:16 324:42 326:8 329:16 332:16 334:16 354:8 364:8 377:16 379:8 386:8 405:16 442:16 503:8 506:8 525:8 572:8 574:16 603:8 687:8 741:8 746:8 760:8 795:8 813:25 816:8 827:8 872:8 880:8 889:8 1038:16 1056:8 1235:8 1242:8 1485:8 1588:8 1706:8 1726:16 1862:8 1878:8 1962:16 2327:8 2400:8 2830:8 3159:8 3215:8 5049:8 10452:8 12233:25 13094:16 13121:8 13140:8 13443:8 
0.6792684241775767 0.014751913120964 0 0 2:58 105:58 108:29 109:29 110:29 111:29 192:29 233:29 247:58 260:29 313:58 383:117 441:58 446:29 493:29 506:58 507:29 810:58 1033:29 1745:29 2460:29 2639:29 2941:29 3158:29 
0.9552802059093176 0.9925448170122242 0.9378828821536396 1 2:300 105:300 506:100 3569:300 
0.8790378791982382 0.9172383001567807 0.8680188117756115 0.9914110210725507 1:125 2:125 105:125 266:187 502:125 506:125 3286:187 
0.7552761043453045 0.5881446708244616 0.2609809637746466 0.4776210311764178 2:29 105:29 110:14 115:14 128:14 137:14 176:29 188:14 253:44 306:14 313:14 346:14 387:14 498:29 515:14 713:14 728:14 729:14 798:14 800:29 802:44 806:14 809:14 827:14 828:14 1226:14 1567:29 1763:29 1771:44 1772:29 1780:29 1796:44 1800:14 1989:14 2364:14 3133:14 3231:14 3776:14 4114:14 4875:14 8145:59 8158:14 8228:14 8236:14 8281:14 8330:14 8334:14 
0.6122924966686544 0.1163133175362698 0.615096115689332 0.2409485920717365 2:27 6:5 31:5 74:5 82:5 90:5 91:16 105:10 109:27 115:10 129:5 132:10 136:5 138:5 141:5 153:5 187:5 192:5 278:5 282:21 290:5 293:5 295:10 306:5 386:5 394:10 410:5 417:5 448:5 459:10 484:5 490:5 498:5 503:10 507:5 510:16 529:5 584:16 591:5 594:10 600:5 601:10 605:5 682:5 688:5 712:5 713:5 723:5 726:10 776:5 787:5 792:5 827:5 835:5 842:5 848:5 934:5 987:5 1027:5 1035:5 1166:10 1174:5 1182:27 1183:5 1185:10 1190:5 1242:10 1244:5 1265:10 1266:5 1477:5 1668:5 1837:5 2045:5 2053:5 2070:5 2347:5 2453:5 2455:5 2829:5 2881:5 2941:10 2951:5 2983:5 2996:5 3138:21 3165:10 3283:5 3301:5 3321:5 3378:10 3381:21 3591:5 3853:5 3960:10 3971:5 3980:10 3982:5 4341:10 4661:5 4894:10 4899:10 5049:5 5918:5 5964:5 5989:5 7169:43 7176:5 7442:16 8586:10 8713:5 10165:5 11350:5 12393:21 14053:21 14061:5 14064:5 
0.09683541941687435 0.1499136402516075 0.1372723758660825 0.2482760255209957 1:129 2:96 105:96 109:64 110:32 111:96 116:64 138:32 141:32 361:32 395:32 498:32 588:32 655:32 810:32 928:64 1066:32 1106:32 12960:32 
0.8761738792558854 0.9096024126217248 0.8595533310527608 0.9799012651538506 2:300 105:300 235:100 386:100 6494:100 7018:100 
0.1175656825591321 0 0 0.3238173684826082 2:10 6:10 9:7 10:28 11:25 12:7 14:7 15:28 16:10 17:10 18:7 26:7 27:7 34:7 48:7 52:10 86:3 105:7 110:3 111:7 122:10 127:10 140:3 149:3 155:3 156:14 157:3 168:3 176:3 183:7 189:10 192:3 200:3 248:3 253:14 260:3 266:7 282:3 285:21 305:7 306:10 315:10 322:17 323:3 324:3 327:3 329:7 332:3 334:7 335:7 343:7 354:10 355:3 362:3 364:7 377:7 386:10 399:3 402:7 403:7 418:3 442:7 443:7 460:3 470:3 474:7 503:10 563:7 565:7 566:7 573:3 574:3 576:3 669:10 690:3 719:3 726:7 729:7 740:7 741:3 757:10 795:3 818:3 827:3 844:3 852:17 896:7 1035:3 1038:10 1053:7 1091:3 1104:7 1113:3 1234:10 1255:3 1446:3 1458:3 1476:10 1495:10 1511:7 1562:3 1573:7 1588:7 1611:7 1619:10 1703:10 1718:7 1726:7 1866:7 1867:7 1874:17 1878:3 1962:7 2188:3 2341:3 2920:3 2941:3 3195:3 3391:7 3531:7 4034:3 4069:3 4836:3 5174:7 5407:7 6127:7 7404:7 10624:3 11778:3 11846:7 13140:3 13255:7 13275:17 13338:3 13443:7 13950:10 14081:7 
0.955467541878477 0.9922784906659883 0.938238089235553 1 2:153 105:153 153:153 188:76 506:153 13496:307 
0.202889029570639 0.3181262225837002 0.2422884258021251 0.324508540194496 2:16 7:8 11:8 14:8 16:8 26:8 27:8 105:16 111:16 145:8 151:16 154:8 156:8 161:8 164:8 168:16 187:8 189:16 209:33 244:8 248:8 256:8 260:8 266:8 278:8 282:16 285:16 298:8 306:8 313:8 315:8 316:16 322:25 332:8 334:8 343:16 378:16 386:16 410:8 417:8 455:16 503:8 569:8 574:8 603:8 624:42 721:8 723:8 740:8 757:8 818:8 819:8 884:25 915:8 934:8 937:8 963:8 1089:8 1134:8 1135:8 1140:8 1171:8 1200:8 1234:8 1633:16 1662:8 1718:8 1726:8 1850:8 1897:8 2071:8 2207:8 2353:8 3380:8 3427:8 3473:8 3914:8 4425:8 4927:8 5231:8 5933:8 7418:16 13767:8 14083:67 14085:8 
0.5464524129136548 0.5795697707696569 0.5507637882415352 0.6367381463139987 1:117 2:176 52:58 105:176 427:58 504:58 506:58 691:58 3292:117 3293:117 
0.953044049472115 0.9974862251796893 0.9195118496575414 1 74:34 105:68 112:34 117:34 209:34 243:34 263:68 285:34 449:34 846:172 957:34 1182:34 2036:34 2880:34 3141:172 3195:34 3273:34 3342:34 3576:34 
0.2719924042822532 0.8775352213117763 0 0 2:18 14:4 15:4 26:4 30:9 34:4 40:18 90:4 91:4 105:32 108:9 109:23 111:13 118:4 119:4 122:4 126:4 132:13 133:4 140:4 145:9 154:4 160:9 171:4 177:9 178:9 183:4 192:4 200:4 202:4 236:4 252:4 266:4 278:4 285:4 293:9 298:4 306:4 316:4 329:4 331:13 337:4 349:4 350:4 370:9 376:4 381:4 383:4 399:4 432:9 438:4 440:4 441:13 442:9 447:4 449:9 450:9 463:4 466:9 471:4 472:4 474:9 481:32 482:4 483:9 484:4 498:4 503:13 506:9 507:9 529:13 572:9 579:4 629:4 631:4 651:4 656:4 683:4 685:9 688:9 707:4 720:4 725:4 783:9 846:4 848:4 850:4 934:4 937:4 1023:4 1072:4 1182:9 1200:9 1265:4 1266:4 1405:4 1469:4 1484:4 1539:4 1611:9 1652:4 1745:32 1841:4 1848:4 1867:9 1956:4 2012:4 2044:4 2181:4 2228:9 2270:4 2416:4 2426:4 2458:4 2843:4 2877:4 2880:4 2918:4 2924:4 3158:9 3205:4 3283:4 3318:4 3377:4 3508:23 3565:9 3570:13 3592:4 3597:9 3617:9 4365:4 4424:4 4617:4 4656:4 4876:4 5065:4 5198:4 6434:4 8510:4 11057:4 
0 0.0239355717207687 0 0 2:37 41:18 54:37 105:55 108:18 111:37 136:18 164:18 245:37 282:18 298:18 395:18 427:18 442:18 498:18 506:37 514:18 651:18 683:18 787:18 862:55 863:18 867:18 951:18 1106:18 1141:18 1411:37 2209:18 2415:18 2450:18 2453:18 2517:18 2854:18 2855:18 2899:18 3291:74 3897:18 4417:18 6466:37 14102:18 
0.9759916529325084 1 0.9588400633151521 1 1:285 91:142 105:285 9896:285 
0.3191189600420392 0.3243923896815444 0.2063322874700318 0.4273277452301596 2:36 10:18 34:18 82:18 105:36 111:54 121:18 145:18 157:18 171:18 192:18 251:18 256:90 285:36 313:36 339:18 349:18 383:18 385:18 400:18 572:18 577:36 598:36 685:18 687:54 835:18 1745:18 1765:18 1897:18 1970:18 2012:18 2460:90 2843:18 2898:18 7073:18 7680:18 14111:18 
0.4358717160261149 0.481544635158966 0.4563396267622212 0.5168833219937032 2:133 105:133 282:66 298:66 498:66 506:133 713:66 2898:66 2899:66 3286:133 7631:66 
0 0.02274475004568023 0.01324770366915431 0.05068078805535731 2:103 11:34 30:68 34:34 105:172 110:103 178:34 306:34 370:34 423:34 684:34 687:34 1397:34 2223:34 2456:34 2830:34 5503:34 6744:34 7230:34 11136:34 
0.03769100615037486 0.09019242170412667 0.3171782713356495 0.1479474955281414 2:27 12:13 25:13 27:13 41:27 48:27 105:67 107:13 108:13 110:13 142:13 151:13 225:13 244:13 256:13 293:13 306:13 312:13 365:13 377:13 447:13 474:13 496:13 503:13 506:27 510:13 515:13 526:13 631:13 748:13 790:40 827:13 830:13 877:13 1543:121 1570:13 1765:13 1954:13 2183:13 2191:13 2356:13 2450:13 2453:13 2456:13 2639:13 2829:13 2869:13 3123:13 3192:13 3254:13 4067:13 5455:13 6462:13 9744:13 11647:13 14123:13 
0.2366563100377646 0.2941382842312834 0.1993369607001756 0.2358018186386215 2:13 5:6 10:6 11:6 12:6 34:6 40:6 53:6 62:13 63:6 66:6 70:6 74:6 95:13 103:48 105:27 106:6 108:6 127:6 145:6 168:6 194:6 198:6 204:6 209:13 211:6 232:6 256:13 265:6 279:6 285:6 296:6 306:13 310:13 333:6 345:6 349:13 365:6 371:6 381:6 410:6 423:13 428:6 446:13 447:6 495:6 498:6 506:20 507:6 515:6 555:6 570:6 581:6 651:6 713:6 740:13 741:6 780:6 784:6 785:6 814:6 828:6 848:6 893:6 896:6 902:6 945:6 966:6 1069:6 1174:6 1195:6 1210:6 1224:6 1396:6 1414:6 1494:6 1785:6 1839:6 1870:6 1989:6 2070:6 2457:6 2528:13 2829:6 2862:6 2938:6 2954:6 3329:6 3570:6 3576:6 3650:20 3846:6 3952:6 4041:6 4106:6 4176:6 4783:6 4784:6 5390:6 5772:6 6142:6 6254:6 7977:6 13081:13 13094:6 13517:6 14125:76 
0.8381718937001058 0.8086977032650076 0.3026591501471231 0.4491162058413642 2:52 27:52 105:35 132:17 133:17 325:17 503:35 527:17 599:35 809:17 984:17 1143:35 1567:70 2746:35 4221:17 4261:52 4395:17 4760:35 4965:17 6583:17 6601:17 6779:35 7574:17 7760:17 7766:17 7907:17 9489:35 9680:17 10140:17 10848:35 11050:35 11073:17 11091:17 11092:17 11327:17 11621:17 12751:17 14149:17 
0 0 0 0.07531496690586452 2:28 6:28 11:56 12:14 14:14 15:98 16:14 17:42 18:14 26:14 27:14 62:14 67:14 83:14 90:14 105:42 111:28 145:14 151:14 155:14 260:14 266:42 306:28 315:14 322:28 323:28 324:42 326:14 343:14 360:14 365:14 403:28 405:14 411:28 425:14 599:14 603:14 818:14 823:14 825:14 1457:14 2046:14 2195:14 6442:14 13094:14 13111:14 
0.3792919786789496 0.5494120154301996 0.4389843043472056 0.4861702515598684 2:65 80:43 88:21 91:21 105:86 107:43 109:21 209:152 246:21 260:43 446:21 496:21 497:21 601:21 729:21 792:21 829:21 1073:21 1404:21 1539:21 1560:21 1570:21 2223:21 2424:86 2593:21 3332:43 4458:43 
0.4465147623511939 0.4680670620892267 0.4334997108862966 0.5190677921634725 2:83 105:83 133:41 136:125 381:41 433:41 494:41 498:41 506:83 787:41 951:41 1527:41 2866:41 3897:41 6466:41 11607:83 13166:83 
0.7570306624138268 0.7909879969164478 0.750574443842031 0.855934128135722 1:153 2:153 105:153 127:76 333:76 395:76 506:153 3857:153 
0.2935875091722535 0.2044115121278131 0.1615111799976138 0.2505501840850819 2:27 34:41 69:13 104:13 105:41 112:13 133:13 154:55 183:13 236:13 263:13 278:27 306:41 313:13 365:13 383:13 429:41 448:13 464:13 474:13 493:13 585:13 599:13 655:13 679:13 686:13 688:13 713:13 802:13 831:13 863:13 1030:27 1969:13 2015:69 2209:13 2238:13 2400:41 3331:13 9086:13 9761:69 9762:69 10629:13 14167:13 14174:13 
0.9462563847565588 0.983556077274623 0.92881397576367 1 1:250 2:250 105:250 260:250 
0.4537631223558221 0.4644764565250906 0.4481374166661353 0.5093238659317478 2:200 104:50 105:150 222:50 506:200 3569:50 3570:50 7574:50 12947:50 13496:100 13517:50 
0.05296557986087953 0 0.1647445746323371 0.4768672177487514 2:21 10:10 14:21 18:10 26:10 27:10 64:10 105:21 107:10 115:10 137:10 141:10 145:10 168:10 177:10 189:10 209:10 211:10 253:10 256:21 266:10 285:10 306:42 310:10 315:10 332:10 336:10 337:10 339:10 349:10 354:10 362:10 366:10 377:10 378:10 427:10 449:21 463:10 474:10 481:10 496:10 507:42 528:10 570:21 584:10 585:10 599:10 757:10 814:21 824:10 843:21 861:10 1027:10 1064:10 1182:10 1242:10 1462:10 1476:42 1496:10 1509:10 1534:10 1580:10 1842:10 1868:10 1870:10 1874:21 2032:10 2070:10 2389:10 2405:10 2920:10 3331:10 3391:10 3394:10 5918:10 6629:10 7017:10 
0.9032557514978868 0.9407840909937626 0.8888078194930389 1 2:142 30:142 105:214 441:214 506:214 6141:71 
0.4097918750984352 0 0 0 2:26 26:13 30:13 69:13 105:26 107:13 109:26 111:26 112:13 115:26 145:13 182:13 245:13 247:26 285:13 290:13 313:52 323:13 383:52 388:13 439:13 443:26 448:13 470:13 474:13 502:26 506:26 507:13 683:13 689:13 694:13 699:13 722:26 746:13 840:13 1106:39 1159:13 1174:13 1558:13 1611:26 1866:13 2455:13 2840:13 2843:13 2856:13 3072:13 3160:13 3286:65 4106:13 4165:13 4783:13 5921:13 11628:13 
0.5133764992212899 0.5598074396509949 0.5071953182333515 0.58737083883464 2:100 31:33 105:100 313:100 386:33 507:66 627:33 691:33 863:33 1631:33 1745:33 2432:133 2957:66 7361:100 7483:33 10641:33 13367:33 
0.5385408036307167 0.5480839645826303 0.4641610390616807 0.5456403740736662 2:83 34:20 40:20 54:20 105:62 108:20 111:20 113:20 136:41 165:20 247:20 256:125 313:20 383:20 498:41 655:20 683:20 726:41 787:20 1141:20 2021:20 2195:20 2424:62 3308:20 4780:20 5491:20 14189:145 
0.01205201140444575 0 0 0 2:38 12:7 14:38 19:7 20:7 31:7 40:7 41:15 48:7 54:15 92:7 104:15 105:15 106:7 107:22 108:7 109:7 111:7 115:7 127:7 128:7 136:7 164:7 189:7 192:7 222:15 253:15 260:15 280:7 421:7 427:7 432:15 434:15 441:38 445:7 447:7 448:22 472:7 481:7 485:7 495:7 498:7 504:7 506:15 599:7 631:7 655:7 663:7 683:7 690:7 699:7 702:7 713:7 722:15 729:7 760:15 761:7 828:7 862:7 898:7 951:7 952:7 984:7 1082:7 1182:7 1194:7 1544:7 1570:7 1760:15 1970:7 1989:7 2012:7 2044:7 2195:7 2209:7 2231:7 2450:7 2453:7 2517:7 2830:7 2866:7 3431:7 3565:15 3647:61 3666:38 5618:7 6466:7 6865:7 14102:7 14196:7 
0.5884345905607606 0.5257406833180002 0.5187235056379179 0.6746373640048606 1:54 2:54 105:54 204:27 498:27 500:27 1113:27 1268:27 1660:27 1783:81 1808:27 4237:54 4254:27 4295:27 4551:81 5850:27 5888:27 5959:27 6565:27 7724:27 10587:108 12316:81 12335:27 13836:27 
1 0.8110241287719513 0.4842279889658723 0.6001388633455979 0:1 2:4 7:3 10:9 11:19 14:8 15:9 16:4 17:3 19:1 26:4 27:6 48:3 53:6 54:8 57:11 62:6 64:6 79:1 86:16 88:1 90:3 95:4 105:4 111:22 117:1 145:8 151:8 154:3 156:6 164:4 168:1 172:1 177:1 183:4 188:3 189:6 191:1 194:6 200:1 204:1 209:11 211:1 222:9 225:1 229:1 232:1 235:3 237:3 251:1 252:3 260:1 266:9 282:4 285:9 298:8 306:1 311:1 315:11 316:1 318:1 322:4 329:4 330:9 334:3 335:1 349:1 353:21 356:1 360:6 361:6 364:3 365:8 366:1 374:3 381:4 385:1 399:1 402:1 403:1 405:3 407:4 410:21 412:3 413:14 415:4 423:1 442:1 443:6 446:9 455:3 457:3 464:1 477:1 487:1 490:1 503:3 507:3 512:1 515:1 522:1 523:1 525:1 537:1 561:1 563:3 564:1 569:4 575:1 577:1 596:1 609:1 657:4 663:1 701:1 719:1 722:1 726:1 732:1 740:1 746:1 749:1 757:1 760:3 762:6 795:1 816:1 818:1 825:1 826:1 828:3 835:1 840:3 841:1 842:3 844:9 846:1 850:14 852:16 877:1 878:1 879:1 880:3 884:1 885:1 889:1 894:3 896:1 897:3 898:4 933:1 934:4 949:1 952:1 962:9 1025:1 1034:4 1041:1 1043:3 1050:1 1053:6 1056:6 1058:4 1077:4 1089:3 1090:3 1091:1 1139:4 1179:4 1195:1 1234:3 1242:1 1252:1 1255:4 1268:1 1485:1 1556:1 1601:1 1609:1 1611:1 1624:4 1635:1 1703:1 1706:1 1718:4 1731:3 1735:1 1765:4 1878:1 1910:1 1911:16 1962:1 2004:1 2188:6 2209:1 2314:1 2320:1 2338:3 2341:1 2389:1 2391:1 2869:1 2918:1 2927:4 2957:3 3282:1 3305:1 3388:1 3473:4 3789:1 4041:1 4111:4 4147:1 4425:1 4437:8 4517:1 6516:1 7240:8 7475:1 7993:1 8814:3 10726:1 10808:1 11571:4 12410:8 12460:1 12735:1 13111:3 13131:1 13196:1 13255:4 13377:4 13443:1 13543:13 13544:13 13767:9 14212:13 14214:1 14217:18 14228:4 
0.8992850358804121 0 0 0 2:17 40:11 105:17 107:11 108:11 111:23 115:5 116:17 117:5 133:17 151:5 171:5 245:5 247:5 306:5 313:29 325:5 331:5 383:76 385:11 386:5 388:5 401:11 402:5 434:5 439:11 460:5 463:23 473:5 481:11 490:5 493:5 502:5 506:11 507:5 516:5 591:5 599:5 629:5 653:5 658:5 663:5 665:11 683:5 687:35 688:11 748:5 751:5 759:5 760:5 850:5 856:5 867:5 934:5 952:5 964:5 1024:5 1030:5 1123:5 1141:5 1182:11 1263:5 1265:11 1400:11 1433:5 1867:5 1897:5 2045:5 2191:5 2228:5 2239:5 2265:5 2400:5 2439:5 2528:5 2840:5 2843:5 2850:5 2880:5 2908:5 2996:5 3292:11 3293:11 3315:5 3318:5 3349:5 3490:5 3565:5 3779:5 3914:5 4003:5 4069:5 4147:5 4343:11 4473:5 4512:5 4632:5 4717:5 4747:5 4921:5 5108:5 5109:5 5394:5 5903:5 9594:5 11130:5 13361:47 14230:11 14231:5 14235:5 14236:5 
0.8793159225053959 0.6774818807045913 0.6047692221722991 0.7311876914104282 30:40 48:40 105:120 109:80 164:40 225:40 247:80 266:40 312:40 323:40 361:40 370:40 684:40 2194:40 2270:80 4633:40 6395:80 7136:40 12829:40 
